%YAML:1.0
---
opencv_ml_svm:
   format: 3
   svmType: C_SVC
   kernel:
      type: RBF
      gamma: 2.2500000000000003e-03
   C: 5.0000000000000000e-01
   term_criteria: { epsilon:1.1920928955078125e-07, iterations:1000 }
   var_count: 32
   class_count: 2
   class_labels: !!opencv-matrix
      rows: 2
      cols: 1
      dt: i
      data: [ 0, 1 ]
   sv_total: 2000
   support_vectors:
      - [ 253., 166., 253., 114., 172., 173., 65., 154., 246., 123.,
          183., 92., 83., 225., 216., 123., 11., 130., 108., 28., 187.,
          111., 239., 50., 218., 207., 113., 124., 249., 201., 66., 33. ]
      - [ 0., 120., 147., 69., 83., 74., 55., 4., 121., 192., 98., 0.,
          190., 22., 5., 50., 178., 117., 208., 98., 1., 240., 177.,
          106., 39., 244., 4., 3., 64., 113., 39., 186. ]
      - [ 37., 98., 192., 0., 108., 29., 200., 220., 66., 186., 176.,
          206., 3., 128., 221., 142., 9., 200., 70., 94., 143., 118.,
          204., 0., 24., 12., 181., 188., 237., 187., 90., 132. ]
      - [ 254., 162., 197., 26., 141., 177., 73., 218., 147., 23., 149.,
          223., 3., 197., 250., 159., 73., 130., 237., 156., 58., 79.,
          110., 179., 26., 66., 209., 252., 183., 205., 244., 100. ]
      - [ 196., 80., 21., 229., 1., 78., 55., 32., 40., 166., 67., 1.,
          220., 23., 1., 83., 144., 85., 105., 98., 96., 148., 145., 72.,
          229., 178., 67., 3., 0., 51., 5., 98. ]
      - [ 68., 32., 145., 65., 225., 106., 35., 8., 41., 170., 47., 40.,
          206., 119., 205., 62., 19., 92., 100., 122., 17., 208., 233.,
          64., 13., 148., 37., 39., 194., 115., 7., 33. ]
      - [ 196., 81., 31., 101., 0., 78., 55., 160., 40., 162., 103., 0.,
          215., 119., 9., 115., 176., 85., 104., 98., 97., 212., 185.,
          12., 229., 163., 101., 4., 0., 51., 7., 50. ]
      - [ 165., 102., 132., 147., 109., 63., 200., 152., 91., 179., 1.,
          93., 195., 104., 95., 143., 153., 76., 98., 63., 172., 116.,
          221., 130., 14., 90., 209., 52., 206., 253., 90., 132. ]
      - [ 113., 170., 232., 120., 172., 161., 73., 215., 194., 63., 180.,
          255., 19., 161., 242., 26., 77., 162., 76., 156., 154., 111.,
          230., 49., 216., 137., 245., 252., 245., 200., 210., 104. ]
      - [ 6., 69., 62., 133., 129., 70., 55., 32., 44., 166., 78., 1.,
          204., 55., 3., 64., 176., 85., 139., 99., 64., 144., 57., 206.,
          229., 51., 15., 3., 0., 54., 5., 66. ]
      - [ 228., 100., 156., 51., 8., 46., 2., 136., 114., 182., 35., 24.,
          215., 97., 73., 27., 145., 68., 104., 114., 40., 84., 217., 2.,
          201., 131., 101., 53., 192., 113., 6., 2. ]
      - [ 253., 164., 213., 118., 172., 44., 69., 223., 243., 251., 176.,
          88., 19., 241., 217., 59., 9., 198., 124., 24., 187., 103.,
          238., 34., 154., 235., 117., 60., 235., 240., 194., 33. ]
      - [ 229., 112., 157., 101., 36., 14., 71., 152., 120., 234., 35.,
          76., 211., 49., 217., 59., 144., 68., 124., 110., 233., 244.,
          249., 8., 229., 187., 101., 52., 72., 243., 66., 49. ]
      - [ 177., 170., 203., 26., 110., 129., 200., 69., 214., 19., 81.,
          242., 49., 128., 248., 9., 107., 170., 2., 157., 154., 111.,
          14., 49., 24., 2., 240., 232., 181., 136., 240., 168. ]
      - [ 212., 80., 156., 54., 170., 104., 21., 168., 184., 178., 163.,
          56., 215., 115., 73., 91., 131., 85., 236., 98., 96., 69.,
          139., 32., 209., 227., 81., 31., 32., 113., 7., 3. ]
      - [ 196., 100., 156., 39., 129., 106., 22., 136., 56., 182., 35.,
          24., 198., 115., 73., 27., 145., 84., 104., 114., 32., 84.,
          201., 2., 133., 178., 69., 55., 192., 115., 15., 2. ]
      - [ 6., 93., 16., 133., 81., 78., 182., 168., 44., 164., 75., 1.,
          204., 118., 7., 68., 144., 93., 131., 98., 96., 144., 89.,
          238., 101., 52., 15., 7., 2., 55., 5., 214. ]
      - [ 2., 73., 0., 5., 81., 18., 166., 36., 41., 160., 74., 64.,
          224., 0., 5., 196., 144., 100., 130., 98., 68., 144., 1., 78.,
          36., 52., 4., 3., 2., 54., 9., 140. ]
      - [ 4., 85., 61., 229., 49., 78., 55., 168., 60., 236., 74., 1.,
          220., 119., 1., 64., 148., 93., 59., 99., 96., 144., 121., 78.,
          229., 183., 15., 7., 0., 51., 5., 115. ]
      - [ 241., 166., 199., 122., 172., 165., 73., 223., 210., 91., 177.,
          222., 51., 225., 248., 59., 109., 130., 124., 156., 187., 111.,
          238., 51., 152., 202., 240., 252., 253., 200., 242., 49. ]
      - [ 198., 102., 148., 183., 34., 42., 52., 136., 56., 182., 3.,
          177., 196., 98., 75., 75., 147., 69., 232., 35., 100., 212.,
          201., 74., 132., 50., 95., 7., 128., 113., 15., 6. ]
      - [ 116., 172., 143., 122., 140., 165., 69., 207., 210., 19., 168.,
          26., 51., 225., 120., 59., 73., 226., 104., 152., 58., 111.,
          218., 51., 217., 203., 213., 120., 241., 200., 242., 40. ]
      - [ 196., 48., 149., 83., 137., 124., 65., 136., 123., 187., 35.,
          24., 214., 119., 77., 191., 145., 84., 104., 26., 51., 84.,
          251., 2., 15., 158., 85., 118., 194., 113., 198., 38. ]
      - [ 37., 54., 168., 3., 252., 63., 194., 152., 90., 251., 57., 92.,
          211., 72., 223., 40., 157., 72., 82., 63., 151., 118., 221.,
          18., 14., 29., 37., 116., 221., 251., 90., 132. ]
      - [ 33., 204., 33., 26., 204., 205., 197., 206., 198., 115., 128.,
          90., 50., 148., 244., 45., 73., 42., 18., 93., 251., 43., 126.,
          53., 57., 8., 20., 120., 85., 88., 208., 236. ]
      - [ 249., 203., 70., 124., 12., 12., 77., 117., 224., 144., 182.,
          204., 115., 161., 144., 51., 40., 230., 108., 110., 233., 107.,
          134., 45., 240., 169., 228., 24., 109., 176., 242., 40. ]
      - [ 241., 167., 207., 58., 158., 161., 64., 97., 246., 19., 169.,
          218., 115., 227., 232., 83., 107., 162., 104., 136., 58., 107.,
          142., 55., 152., 162., 240., 120., 253., 194., 226., 40. ]
      - [ 198., 68., 148., 7., 129., 110., 52., 168., 56., 182., 3., 17.,
          204., 50., 75., 203., 145., 85., 232., 35., 52., 212., 217.,
          66., 141., 50., 95., 23., 128., 119., 141., 6. ]
      - [ 196., 90., 157., 247., 42., 74., 23., 176., 184., 190., 7.,
          49., 214., 119., 1., 91., 134., 117., 109., 98., 96., 196.,
          235., 42., 197., 178., 97., 23., 0., 51., 5., 99. ]
      - [ 117., 106., 219., 100., 38., 40., 71., 212., 224., 202., 178.,
          234., 51., 209., 209., 58., 46., 228., 108., 218., 137., 231.,
          134., 40., 208., 136., 101., 184., 237., 243., 98., 41. ]
      - [ 196., 100., 149., 71., 129., 106., 54., 8., 56., 178., 35.,
          56., 206., 119., 73., 159., 145., 85., 232., 114., 32., 212.,
          201., 74., 141., 178., 69., 7., 192., 115., 7., 34. ]
      - [ 245., 106., 195., 84., 110., 185., 196., 214., 226., 155.,
          176., 254., 51., 192., 209., 186., 47., 224., 100., 92., 139.,
          103., 134., 32., 16., 136., 117., 184., 237., 249., 114., 9. ]
      - [ 253., 224., 197., 118., 140., 45., 68., 159., 242., 179., 163.,
          92., 83., 97., 216., 59., 1., 198., 108., 30., 57., 103., 207.,
          0., 216., 202., 117., 124., 232., 248., 210., 32. ]
      - [ 134., 68., 28., 7., 209., 62., 182., 168., 60., 174., 67., 17.,
          204., 106., 15., 201., 145., 77., 163., 99., 100., 212., 89.,
          78., 39., 51., 79., 7., 0., 119., 13., 198. ]
      - [ 253., 176., 197., 114., 141., 189., 192., 218., 211., 243.,
          177., 92., 19., 248., 221., 191., 9., 194., 124., 28., 191.,
          103., 222., 16., 152., 218., 85., 124., 255., 205., 218., 20. ]
      - [ 198., 74., 12., 165., 1., 30., 190., 168., 44., 166., 67.,
          133., 204., 74., 11., 67., 148., 69., 169., 231., 100., 148.,
          73., 236., 231., 115., 203., 7., 0., 55., 13., 66. ]
      - [ 49., 189., 83., 88., 220., 237., 192., 87., 210., 81., 184.,
          90., 51., 144., 244., 48., 105., 186., 86., 24., 155., 107.,
          54., 55., 25., 140., 48., 120., 249., 136., 210., 184. ]
      - [ 241., 91., 71., 124., 42., 0., 79., 244., 225., 136., 178.,
          238., 115., 65., 177., 115., 110., 228., 76., 238., 233., 103.,
          38., 45., 240., 168., 228., 152., 109., 177., 98., 41. ]
      - [ 249., 221., 95., 124., 44., 206., 69., 53., 228., 90., 166.,
          88., 115., 19., 160., 243., 64., 180., 124., 106., 233., 45.,
          51., 61., 243., 235., 96., 16., 106., 144., 224., 40. ]
      - [ 70., 241., 144., 7., 177., 78., 54., 168., 42., 172., 11., 9.,
          204., 114., 73., 150., 145., 93., 232., 115., 84., 208., 217.,
          72., 173., 20., 13., 103., 128., 119., 143., 23. ]
      - [ 196., 96., 157., 165., 1., 110., 55., 136., 56., 174., 3., 9.,
          206., 55., 73., 91., 145., 85., 233., 114., 32., 212., 217.,
          74., 197., 179., 79., 7., 128., 115., 7., 98. ]
      - [ 46., 183., 128., 42., 153., 181., 22., 221., 7., 113., 13.,
          205., 73., 236., 74., 132., 149., 90., 128., 114., 158., 10.,
          122., 181., 43., 213., 5., 127., 146., 87., 138., 212. ]
      - [ 192., 93., 151., 117., 131., 78., 21., 39., 240., 194., 98.,
          16., 246., 55., 1., 123., 128., 118., 120., 2., 97., 196.,
          177., 42., 225., 170., 84., 2., 72., 112., 135., 58. ]
      - [ 6., 85., 28., 167., 33., 78., 54., 172., 60., 174., 67., 33.,
          204., 126., 11., 65., 208., 85., 187., 99., 100., 144., 89.,
          204., 229., 115., 79., 7., 16., 119., 13., 67. ]
      - [ 132., 21., 29., 165., 48., 78., 179., 40., 44., 232., 75., 1.,
          212., 22., 9., 65., 144., 85., 25., 99., 96., 144., 89., 12.,
          229., 177., 11., 4., 0., 35., 5., 114. ]
      - [ 197., 69., 29., 103., 0., 14., 103., 168., 104., 162., 99., 8.,
          215., 115., 9., 115., 144., 68., 104., 106., 96., 240., 217.,
          44., 229., 171., 101., 4., 72., 115., 67., 34. ]
      - [ 196., 80., 149., 229., 1., 78., 39., 48., 40., 174., 66., 1.,
          214., 55., 1., 83., 144., 84., 105., 106., 64., 148., 209., 8.,
          229., 178., 65., 0., 0., 51., 7., 34. ]
      - [ 241., 216., 111., 250., 14., 197., 73., 212., 130., 81., 144.,
          254., 51., 213., 176., 35., 108., 178., 93., 204., 235., 15.,
          54., 49., 208., 136., 184., 184., 61., 153., 48., 120. ]
      - [ 253., 96., 217., 103., 40., 74., 71., 152., 98., 178., 165.,
          24., 83., 81., 201., 59., 17., 212., 108., 122., 105., 102.,
          233., 0., 195., 201., 101., 52., 226., 243., 66., 32. ]
      - [ 6., 85., 20., 167., 17., 78., 182., 40., 60., 172., 75., 1.,
          204., 22., 9., 64., 144., 93., 131., 99., 96., 144., 89., 206.,
          165., 54., 11., 7., 0., 55., 5., 130. ]
      - [ 217., 133., 22., 102., 152., 46., 70., 51., 225., 0., 171.,
          88., 83., 51., 8., 115., 0., 134., 108., 42., 121., 137., 25.,
          15., 243., 235., 0., 16., 34., 226., 192., 32. ]
      - [ 249., 121., 219., 118., 10., 12., 69., 117., 225., 210., 164.,
          92., 51., 145., 193., 59., 34., 228., 108., 74., 201., 103.,
          182., 32., 210., 233., 116., 56., 107., 176., 194., 40. ]
      - [ 253., 162., 221., 48., 170., 40., 73., 24., 162., 179., 161.,
          252., 87., 227., 200., 27., 39., 196., 108., 60., 27., 71.,
          207., 0., 216., 163., 117., 252., 172., 225., 2., 33. ]
      - [ 206., 114., 209., 69., 97., 58., 43., 16., 41., 170., 103.,
          224., 200., 7., 205., 254., 22., 92., 148., 110., 1., 148.,
          233., 200., 6., 56., 33., 134., 130., 247., 3., 181. ]
      - [ 117., 103., 76., 70., 204., 26., 70., 184., 65., 160., 189.,
          238., 83., 96., 155., 183., 24., 196., 68., 238., 205., 98.,
          205., 44., 50., 41., 229., 180., 111., 251., 218., 4. ]
      - [ 245., 64., 149., 102., 8., 12., 68., 152., 224., 178., 163.,
          92., 83., 81., 201., 191., 1., 196., 108., 110., 233., 103.,
          219., 0., 144., 170., 97., 60., 104., 179., 66., 32. ]
      - [ 249., 164., 237., 122., 140., 165., 65., 95., 210., 83., 165.,
          90., 51., 241., 248., 59., 73., 130., 124., 28., 187., 111.,
          254., 19., 219., 203., 240., 124., 249., 200., 210., 32. ]
      - [ 61., 166., 224., 80., 236., 185., 200., 223., 83., 243., 188.,
          254., 19., 168., 215., 190., 73., 202., 118., 157., 191., 111.,
          238., 146., 26., 78., 245., 252., 255., 204., 218., 132. ]
      - [ 76., 88., 147., 69., 65., 78., 39., 16., 40., 162., 98., 64.,
          254., 51., 1., 222., 48., 116., 104., 106., 65., 212., 145.,
          72., 165., 176., 69., 0., 2., 115., 7., 40. ]
      - [ 198., 64., 148., 5., 3., 74., 52., 8., 40., 130., 3., 17.,
          204., 2., 9., 223., 176., 85., 232., 99., 100., 212., 129.,
          72., 132., 50., 75., 7., 0., 119., 15., 6. ]
      - [ 88., 141., 23., 232., 145., 203., 67., 55., 165., 1., 170., 0.,
          191., 51., 32., 208., 32., 178., 77., 8., 58., 137., 1., 63.,
          249., 229., 32., 80., 34., 128., 164., 42. ]
      - [ 253., 146., 36., 58., 13., 181., 64., 218., 211., 87., 165.,
          31., 11., 200., 122., 175., 73., 130., 236., 156., 191., 111.,
          62., 181., 219., 203., 208., 125., 251., 141., 216., 86. ]
      - [ 245., 106., 199., 86., 44., 12., 69., 212., 225., 250., 176.,
          76., 115., 193., 209., 191., 8., 228., 108., 110., 233., 103.,
          238., 40., 144., 136., 101., 56., 111., 251., 82., 41. ]
      - [ 217., 133., 94., 102., 152., 46., 66., 51., 229., 0., 175.,
          88., 115., 115., 8., 115., 32., 166., 76., 40., 57., 137., 17.,
          15., 242., 239., 0., 16., 34., 226., 232., 32. ]
      - [ 245., 96., 149., 103., 40., 14., 71., 152., 96., 186., 163.,
          72., 211., 81., 201., 59., 16., 196., 108., 106., 105., 244.,
          217., 40., 228., 170., 101., 20., 104., 243., 66., 32. ]
      - [ 202., 73., 31., 165., 3., 66., 55., 32., 44., 132., 67., 33.,
          236., 55., 0., 83., 178., 117., 169., 226., 96., 144., 33.,
          236., 229., 179., 74., 3., 0., 51., 37., 98. ]
      - [ 245., 100., 213., 118., 140., 45., 65., 152., 114., 179., 161.,
          88., 83., 113., 217., 59., 25., 196., 108., 58., 169., 103.,
          255., 2., 217., 142., 117., 60., 233., 249., 82., 32. ]
      - [ 70., 95., 61., 229., 177., 78., 55., 168., 44., 172., 79., 33.,
          204., 119., 9., 80., 150., 85., 169., 98., 64., 144., 105.,
          206., 231., 182., 15., 7., 0., 115., 5., 99. ]
      - [ 229., 96., 157., 101., 9., 110., 69., 24., 104., 186., 35., 8.,
          214., 51., 73., 59., 145., 84., 104., 106., 105., 116., 217.,
          8., 197., 251., 69., 52., 200., 115., 66., 34. ]
      - [ 130., 29., 153., 229., 145., 78., 55., 39., 60., 226., 74.,
          16., 252., 55., 1., 96., 149., 127., 155., 34., 97., 156., 81.,
          206., 229., 182., 15., 2., 8., 114., 133., 186. ]
      - [ 241., 91., 67., 84., 106., 0., 79., 244., 241., 194., 240.,
          238., 51., 129., 177., 63., 46., 228., 100., 238., 233., 103.,
          166., 40., 112., 168., 100., 168., 111., 177., 98., 57. ]
      - [ 61., 166., 193., 90., 252., 173., 200., 219., 210., 123., 185.,
          222., 19., 224., 216., 188., 93., 138., 84., 28., 187., 107.,
          254., 51., 24., 206., 181., 252., 255., 203., 210., 160. ]
      - [ 196., 69., 29., 167., 129., 78., 7., 172., 36., 166., 3., 0.,
          198., 35., 9., 83., 144., 84., 105., 98., 104., 212., 73., 12.,
          229., 162., 77., 21., 0., 51., 133., 34. ]
      - [ 193., 121., 159., 101., 1., 78., 119., 52., 104., 234., 98.,
          12., 254., 51., 1., 51., 144., 117., 120., 106., 97., 244.,
          145., 104., 229., 249., 69., 2., 72., 115., 3., 42. ]
      - [ 4., 229., 57., 71., 209., 79., 55., 173., 124., 164., 111., 8.,
          222., 53., 8., 48., 144., 93., 226., 98., 80., 176., 121., 94.,
          111., 150., 5., 39., 64., 122., 135., 226. ]
      - [ 210., 72., 191., 188., 10., 192., 53., 38., 188., 22., 134.,
          177., 173., 151., 35., 75., 226., 117., 237., 129., 96., 205.,
          162., 97., 209., 227., 90., 131., 32., 48., 37., 107. ]
      - [ 253., 96., 221., 118., 8., 12., 69., 24., 225., 178., 167.,
          88., 83., 211., 201., 59., 0., 196., 108., 106., 105., 71.,
          251., 0., 211., 235., 117., 60., 98., 177., 66., 32. ]
      - [ 241., 113., 213., 100., 40., 78., 69., 61., 225., 250., 162.,
          76., 83., 51., 128., 51., 4., 212., 124., 106., 233., 99.,
          243., 8., 241., 168., 101., 16., 104., 240., 194., 57. ]
      - [ 4., 112., 144., 5., 37., 110., 179., 0., 104., 170., 35., 8.,
          206., 16., 77., 14., 144., 69., 72., 114., 0., 244., 217., 72.,
          5., 16., 5., 7., 192., 115., 3., 6. ]
      - [ 68., 96., 145., 69., 192., 110., 38., 0., 104., 162., 42., 72.,
          214., 51., 65., 62., 145., 84., 104., 106., 1., 212., 145.,
          10., 133., 182., 69., 38., 200., 115., 3., 32. ]
      - [ 32., 164., 56., 115., 153., 233., 17., 15., 78., 53., 44., 24.,
          166., 17., 72., 48., 129., 26., 194., 16., 18., 56., 99., 55.,
          205., 149., 16., 115., 208., 8., 135., 42. ]
      - [ 142., 93., 56., 165., 241., 94., 182., 168., 61., 166., 78.,
          1., 204., 126., 7., 64., 208., 93., 147., 99., 100., 144., 89.,
          206., 103., 119., 15., 7., 2., 55., 13., 214. ]
      - [ 2., 12., 42., 133., 209., 234., 178., 39., 60., 167., 74., 1.,
          236., 46., 6., 64., 145., 47., 131., 33., 20., 152., 1., 206.,
          45., 54., 30., 3., 128., 70., 141., 206. ]
      - [ 6., 77., 58., 133., 81., 94., 191., 160., 60., 164., 79., 3.,
          204., 126., 7., 64., 246., 125., 147., 227., 100., 144., 25.,
          238., 103., 55., 143., 7., 0., 55., 45., 198. ]
      - [ 253., 47., 199., 116., 138., 52., 76., 183., 240., 242., 178.,
          222., 115., 33., 209., 191., 39., 230., 116., 174., 233., 107.,
          134., 34., 184., 234., 245., 152., 239., 240., 218., 40. ]
      - [ 196., 65., 21., 39., 1., 78., 54., 40., 40., 160., 99., 0.,
          206., 51., 9., 211., 144., 85., 104., 98., 96., 148., 217.,
          76., 165., 178., 71., 7., 64., 51., 3., 2. ]
      - [ 197., 108., 148., 21., 129., 46., 52., 134., 120., 178., 34.,
          24., 222., 48., 69., 187., 129., 101., 104., 114., 101., 244.,
          145., 106., 37., 186., 85., 2., 200., 113., 11., 14. ]
      - [ 37., 79., 109., 69., 244., 62., 239., 184., 112., 232., 126.,
          204., 83., 96., 151., 52., 28., 236., 20., 110., 237., 176.,
          109., 46., 46., 46., 165., 132., 109., 251., 82., 244. ]
      - [ 116., 48., 249., 114., 168., 108., 65., 155., 242., 179., 173.,
          24., 19., 247., 201., 58., 1., 222., 124., 24., 27., 99., 250.,
          0., 219., 205., 117., 124., 224., 225., 198., 32. ]
      - [ 198., 84., 157., 37., 161., 78., 55., 168., 40., 170., 2., 41.,
          214., 55., 9., 91., 148., 85., 233., 98., 96., 212., 217., 74.,
          229., 243., 77., 23., 0., 115., 7., 51. ]
      - [ 196., 80., 29., 101., 1., 78., 55., 168., 40., 174., 3., 0.,
          214., 23., 9., 91., 144., 85., 104., 98., 96., 212., 217., 8.,
          229., 179., 69., 23., 0., 51., 5., 34. ]
      - [ 241., 16., 188., 248., 12., 100., 81., 18., 210., 83., 165.,
          16., 19., 147., 106., 123., 193., 144., 124., 8., 59., 71.,
          242., 1., 211., 235., 112., 60., 184., 65., 104., 34. ]
      - [ 253., 160., 201., 114., 140., 173., 65., 219., 211., 187.,
          181., 92., 19., 225., 216., 58., 9., 138., 108., 28., 187.,
          111., 254., 18., 216., 207., 117., 124., 251., 201., 210., 32. ]
      - [ 68., 100., 147., 69., 2., 106., 55., 4., 104., 162., 106., 0.,
          212., 51., 65., 58., 144., 117., 96., 98., 0., 212., 129., 72.,
          37., 180., 69., 2., 192., 115., 7., 42. ]
      - [ 212., 120., 189., 101., 40., 78., 87., 152., 112., 250., 167.,
          24., 215., 119., 73., 59., 144., 84., 108., 106., 105., 229.,
          249., 10., 193., 235., 101., 20., 64., 241., 71., 115. ]
      - [ 70., 112., 185., 103., 97., 110., 55., 136., 57., 174., 103.,
          1., 204., 119., 73., 90., 144., 93., 233., 98., 0., 212., 249.,
          106., 229., 247., 79., 7., 130., 115., 7., 98. ]
      - [ 57., 152., 121., 90., 92., 217., 65., 222., 211., 117., 180.,
          26., 51., 157., 240., 164., 9., 154., 20., 24., 139., 43.,
          126., 55., 91., 205., 48., 120., 119., 136., 212., 232. ]
      - [ 25., 27., 122., 64., 54., 147., 184., 115., 197., 68., 86.,
          166., 9., 140., 182., 224., 46., 169., 150., 129., 132., 185.,
          36., 204., 18., 73., 32., 131., 103., 140., 125., 93. ]
      - [ 197., 112., 149., 69., 1., 14., 102., 152., 105., 234., 35.,
          76., 222., 16., 73., 191., 144., 68., 104., 106., 225., 244.,
          217., 8., 133., 250., 69., 6., 74., 51., 67., 38. ]
      - [ 225., 201., 4., 186., 140., 141., 68., 175., 198., 17., 128.,
          92., 179., 64., 56., 67., 201., 2., 104., 76., 127., 104., 91.,
          53., 169., 217., 212., 124., 24., 24., 216., 8. ]
      - [ 15., 48., 129., 65., 65., 126., 34., 0., 97., 225., 11., 4.,
          8., 24., 69., 188., 144., 12., 144., 16., 149., 144., 144.,
          192., 15., 92., 0., 70., 202., 103., 74., 54. ]
      - [ 10., 79., 32., 135., 83., 18., 190., 36., 29., 4., 78., 167.,
          236., 14., 6., 196., 182., 93., 131., 231., 68., 144., 9.,
          239., 39., 52., 139., 131., 2., 54., 13., 214. ]
      - [ 125., 165., 201., 106., 156., 97., 67., 216., 66., 49., 169.,
          152., 83., 97., 216., 56., 89., 192., 104., 254., 27., 99.,
          239., 23., 216., 142., 165., 124., 241., 235., 210., 32. ]
      - [ 10., 81., 56., 133., 113., 94., 183., 40., 44., 236., 71., 1.,
          204., 30., 7., 64., 148., 29., 147., 99., 68., 144., 113.,
          204., 103., 113., 10., 7., 2., 54., 13., 215. ]
      - [ 116., 169., 188., 118., 136., 76., 84., 143., 243., 191., 164.,
          24., 87., 251., 72., 26., 129., 215., 108., 16., 58., 107.,
          218., 32., 251., 223., 117., 125., 192., 112., 206., 10. ]
      - [ 5., 101., 16., 5., 83., 26., 166., 32., 125., 160., 106., 96.,
          204., 48., 5., 164., 144., 93., 130., 98., 68., 176., 1., 78.,
          36., 52., 7., 6., 66., 55., 11., 132. ]
      - [ 237., 38., 164., 67., 172., 61., 64., 152., 67., 187., 181.,
          92., 211., 32., 221., 59., 25., 196., 108., 60., 187., 102.,
          239., 16., 78., 219., 117., 124., 202., 251., 210., 37. ]
      - [ 245., 112., 221., 69., 8., 110., 65., 24., 98., 242., 39., 72.,
          83., 23., 193., 59., 1., 212., 108., 122., 9., 100., 249., 0.,
          193., 171., 101., 52., 224., 241., 70., 32. ]
      - [ 116., 104., 211., 84., 74., 104., 65., 6., 226., 179., 160.,
          24., 18., 179., 65., 62., 1., 244., 104., 24., 8., 103., 130.,
          0., 153., 132., 85., 56., 224., 241., 70., 40. ]
      - [ 246., 98., 237., 242., 206., 33., 206., 216., 147., 178., 177.,
          251., 83., 205., 221., 11., 93., 216., 117., 247., 202., 103.,
          206., 48., 248., 136., 237., 188., 245., 251., 210., 176. ]
      - [ 213., 70., 22., 37., 18., 10., 38., 40., 52., 162., 203., 68.,
          214., 34., 9., 83., 48., 68., 104., 106., 96., 209., 193., 14.,
          180., 162., 67., 4., 40., 51., 33., 0. ]
      - [ 124., 160., 209., 120., 170., 233., 65., 219., 227., 17., 177.,
          120., 19., 213., 200., 58., 11., 146., 108., 24., 27., 111.,
          234., 17., 219., 201., 53., 124., 243., 128., 198., 32. ]
      - [ 253., 112., 221., 101., 172., 46., 71., 152., 96., 250., 167.,
          92., 211., 113., 217., 59., 17., 196., 124., 110., 233., 102.,
          253., 8., 197., 203., 101., 52., 234., 243., 82., 48. ]
      - [ 198., 68., 148., 167., 1., 110., 55., 8., 40., 174., 67., 1.,
          204., 55., 9., 91., 144., 85., 233., 98., 32., 212., 217., 74.,
          229., 178., 79., 7., 128., 115., 7., 2. ]
      - [ 70., 48., 144., 35., 193., 108., 49., 9., 43., 181., 43., 25.,
          204., 55., 74., 26., 145., 31., 233., 48., 18., 80., 217., 64.,
          205., 148., 27., 103., 130., 71., 135., 2. ]
      - [ 108., 32., 185., 118., 201., 108., 81., 10., 162., 183., 165.,
          24., 150., 183., 73., 58., 129., 94., 104., 24., 24., 70.,
          250., 0., 203., 249., 85., 63., 194., 97., 70., 34. ]
      - [ 252., 96., 209., 98., 168., 73., 67., 216., 195., 186., 181.,
          120., 83., 213., 201., 59., 89., 208., 76., 122., 11., 103.,
          238., 48., 217., 201., 37., 124., 243., 187., 70., 32. ]
      - [ 6., 85., 61., 165., 49., 78., 183., 168., 44., 236., 75., 1.,
          220., 31., 11., 65., 150., 85., 155., 99., 96., 144., 121.,
          204., 229., 179., 11., 7., 0., 51., 5., 83. ]
      - [ 76., 98., 145., 69., 97., 30., 38., 24., 40., 170., 107., 72.,
          202., 3., 205., 254., 20., 92., 224., 106., 65., 212., 193.,
          72., 37., 180., 5., 4., 66., 243., 14., 32. ]
      - [ 68., 124., 147., 69., 194., 106., 39., 128., 120., 162., 106.,
          104., 212., 55., 65., 62., 50., 125., 104., 114., 33., 212.,
          145., 106., 45., 134., 69., 2., 192., 115., 7., 40. ]
      - [ 241., 77., 95., 104., 142., 133., 71., 117., 192., 16., 168.,
          74., 51., 209., 160., 51., 104., 162., 76., 106., 73., 43.,
          18., 61., 240., 136., 32., 56., 121., 154., 226., 40. ]
      - [ 173., 124., 242., 69., 67., 90., 183., 148., 112., 162., 38.,
          56., 26., 16., 195., 63., 34., 116., 64., 106., 224., 244.,
          164., 42., 100., 8., 69., 32., 107., 241., 74., 140. ]
      - [ 252., 164., 157., 122., 141., 109., 65., 139., 211., 51., 165.,
          24., 211., 241., 72., 59., 137., 146., 104., 24., 59., 103.,
          251., 19., 203., 223., 85., 124., 208., 72., 198., 34. ]
      - [ 14., 69., 16., 133., 81., 94., 182., 32., 45., 164., 75., 1.,
          204., 22., 7., 196., 144., 93., 131., 99., 68., 144., 81.,
          204., 37., 52., 11., 7., 2., 55., 13., 134. ]
      - [ 228., 96., 153., 103., 40., 110., 67., 24., 34., 186., 35.,
          24., 214., 55., 65., 58., 145., 84., 108., 58., 9., 84., 249.,
          2., 197., 187., 101., 52., 192., 115., 70., 34. ]
      - [ 2., 9., 74., 5., 0., 16., 174., 32., 36., 4., 90., 131., 0.,
          72., 55., 64., 112., 105., 2., 198., 68., 144., 5., 234., 38.,
          44., 134., 129., 5., 34., 96., 14. ]
      - [ 241., 162., 203., 122., 174., 161., 73., 213., 194., 27., 177.,
          254., 51., 193., 248., 59., 111., 162., 108., 156., 187., 111.,
          142., 49., 216., 136., 240., 248., 253., 200., 242., 41. ]
      - [ 70., 96., 149., 69., 195., 74., 54., 0., 41., 162., 35., 8.,
          204., 50., 65., 159., 144., 85., 232., 98., 64., 212., 137.,
          72., 133., 178., 69., 7., 192., 115., 7., 6. ]
      - [ 249., 224., 149., 122., 141., 77., 69., 189., 195., 115., 161.,
          24., 19., 81., 72., 59., 137., 130., 104., 8., 123., 111.,
          250., 19., 201., 138., 85., 124., 90., 8., 194., 40. ]
      - [ 202., 212., 23., 247., 43., 78., 53., 39., 189., 26., 6., 48.,
          236., 55., 0., 223., 163., 87., 249., 34., 96., 205., 179.,
          205., 199., 243., 94., 3., 2., 112., 165., 59. ]
      - [ 192., 205., 23., 95., 131., 98., 38., 167., 56., 2., 106., 80.,
          244., 119., 8., 247., 17., 118., 104., 106., 97., 212., 153.,
          111., 165., 162., 70., 2., 0., 115., 161., 40. ]
      - [ 198., 113., 20., 165., 161., 78., 54., 168., 57., 174., 3., 9.,
          204., 50., 3., 223., 144., 85., 235., 99., 100., 212., 217.,
          200., 165., 114., 79., 7., 0., 119., 15., 6. ]
      - [ 198., 88., 22., 197., 65., 94., 54., 32., 41., 174., 66., 33.,
          204., 22., 5., 215., 144., 117., 169., 98., 100., 148., 145.,
          206., 37., 50., 74., 3., 0., 55., 13., 15. ]
      - [ 64., 177., 157., 113., 137., 108., 53., 15., 42., 179., 35.,
          24., 150., 51., 72., 58., 129., 87., 104., 16., 19., 72., 211.,
          0., 205., 146., 85., 119., 200., 64., 135., 50. ]
      - [ 196., 100., 149., 71., 97., 110., 55., 8., 57., 174., 99., 0.,
          204., 119., 73., 223., 144., 85., 232., 98., 32., 212., 217.,
          74., 165., 178., 69., 7., 130., 115., 7., 34. ]
      - [ 84., 106., 223., 116., 42., 96., 71., 212., 224., 138., 178.,
          232., 51., 215., 193., 59., 38., 244., 108., 202., 9., 231.,
          166., 40., 208., 170., 116., 152., 229., 241., 38., 41. ]
      - [ 138., 143., 38., 191., 187., 130., 188., 39., 189., 23., 210.,
          183., 236., 110., 34., 67., 231., 35., 251., 165., 116., 205.,
          3., 255., 172., 114., 218., 195., 20., 68., 173., 79. ]
      - [ 101., 120., 209., 66., 80., 44., 99., 152., 99., 168., 105.,
          72., 82., 209., 205., 52., 16., 204., 2., 90., 129., 50., 248.,
          104., 5., 28., 1., 44., 202., 243., 66., 160. ]
      - [ 33., 69., 40., 133., 84., 14., 238., 32., 68., 164., 78., 5.,
          193., 40., 23., 64., 216., 76., 18., 111., 204., 176., 85.,
          142., 103., 61., 131., 0., 0., 175., 88., 132. ]
      - [ 245., 96., 196., 68., 9., 46., 64., 8., 96., 178., 163., 24.,
          83., 0., 73., 191., 17., 196., 104., 122., 41., 103., 217., 0.,
          145., 138., 69., 52., 233., 115., 66., 0. ]
      - [ 204., 116., 149., 69., 161., 110., 54., 136., 104., 186., 35.,
          8., 206., 51., 73., 191., 145., 84., 232., 114., 33., 212.,
          217., 8., 141., 210., 69., 55., 194., 115., 7., 34. ]
      - [ 212., 188., 159., 218., 216., 229., 17., 202., 182., 27., 161.,
          24., 52., 247., 96., 123., 233., 251., 106., 144., 58., 71.,
          186., 115., 89., 134., 87., 123., 144., 81., 166., 34. ]
      - [ 232., 160., 157., 122., 205., 237., 65., 11., 211., 51., 165.,
          24., 147., 241., 72., 59., 201., 154., 104., 24., 59., 111.,
          250., 17., 203., 219., 81., 125., 210., 72., 214., 34. ]
      - [ 245., 112., 221., 118., 40., 108., 65., 152., 226., 250., 165.,
          88., 83., 241., 201., 59., 1., 212., 108., 122., 169., 103.,
          250., 32., 209., 139., 117., 60., 233., 241., 66., 33. ]
      - [ 253., 48., 213., 82., 12., 125., 65., 218., 243., 243., 165.,
          88., 19., 241., 201., 191., 9., 196., 108., 24., 171., 103.,
          254., 2., 91., 203., 113., 124., 235., 225., 66., 32. ]
      - [ 216., 132., 94., 126., 155., 226., 65., 47., 244., 23., 167.,
          16., 99., 99., 42., 91., 33., 134., 104., 32., 58., 77., 63.,
          31., 251., 227., 84., 81., 179., 64., 228., 10. ]
      - [ 57., 178., 194., 88., 238., 177., 72., 87., 195., 91., 188.,
          254., 51., 129., 240., 188., 111., 170., 86., 156., 155., 107.,
          134., 145., 26., 12., 176., 248., 255., 200., 250., 153. ]
      - [ 100., 32., 145., 64., 201., 105., 65., 136., 99., 179., 169.,
          24., 22., 243., 73., 62., 17., 220., 96., 24., 26., 98., 250.,
          0., 217., 132., 5., 126., 226., 115., 198., 34. ]
      - [ 229., 52., 221., 114., 204., 45., 65., 218., 114., 251., 165.,
          92., 19., 241., 217., 59., 9., 206., 112., 26., 187., 102.,
          250., 2., 77., 139., 117., 60., 233., 249., 82., 160. ]
      - [ 196., 64., 149., 101., 1., 78., 55., 8., 40., 166., 35., 0.,
          222., 119., 9., 91., 144., 85., 105., 98., 96., 212., 217., 8.,
          197., 178., 69., 6., 0., 115., 7., 34. ]
      - [ 206., 48., 148., 99., 41., 122., 80., 8., 105., 242., 163.,
          120., 206., 82., 73., 191., 147., 85., 236., 50., 45., 69.,
          219., 192., 134., 243., 65., 23., 138., 119., 11., 23. ]
      - [ 241., 27., 77., 100., 172., 14., 71., 54., 224., 232., 178.,
          108., 51., 49., 145., 51., 4., 228., 124., 108., 233., 105.,
          64., 44., 232., 138., 101., 144., 104., 176., 82., 57. ]
      - [ 93., 7., 85., 103., 176., 14., 71., 48., 100., 168., 106., 68.,
          211., 33., 144., 112., 16., 196., 76., 110., 249., 176., 77.,
          14., 224., 175., 37., 16., 104., 242., 192., 33. ]
      - [ 204., 36., 156., 35., 129., 110., 51., 136., 58., 183., 39.,
          25., 206., 119., 75., 27., 145., 85., 233., 50., 48., 84.,
          217., 66., 205., 147., 69., 119., 128., 99., 7., 2. ]
      - [ 120., 185., 243., 88., 218., 225., 65., 87., 195., 81., 188.,
          10., 51., 149., 224., 60., 105., 186., 84., 24., 27., 43.,
          178., 49., 217., 205., 48., 120., 243., 136., 230., 120. ]
      - [ 196., 121., 150., 39., 147., 78., 55., 160., 40., 172., 43.,
          8., 204., 118., 73., 150., 178., 117., 232., 114., 96., 208.,
          153., 106., 173., 182., 79., 7., 128., 115., 7., 35. ]
      - [ 196., 48., 145., 67., 225., 110., 50., 8., 120., 170., 35.,
          24., 222., 112., 77., 190., 145., 92., 64., 114., 33., 244.,
          217., 74., 13., 144., 69., 39., 192., 115., 7., 167. ]
      - [ 202., 204., 150., 191., 43., 66., 52., 39., 185., 150., 194.,
          49., 236., 119., 2., 91., 167., 119., 233., 162., 96., 205.,
          131., 239., 183., 242., 94., 3., 2., 116., 165., 74. ]
      - [ 198., 32., 156., 183., 9., 110., 16., 8., 184., 182., 135.,
          25., 206., 63., 75., 91., 129., 85., 233., 51., 36., 68., 219.,
          2., 195., 243., 91., 23., 128., 113., 15., 66. ]
      - [ 208., 112., 151., 118., 11., 104., 85., 6., 224., 178., 162.,
          24., 54., 183., 65., 59., 33., 116., 104., 24., 41., 101.,
          178., 0., 209., 170., 85., 58., 224., 113., 70., 42. ]
      - [ 53., 166., 200., 26., 220., 189., 192., 223., 214., 49., 185.,
          94., 19., 232., 254., 8., 73., 138., 66., 29., 158., 107.,
          206., 17., 24., 12., 181., 124., 253., 200., 218., 132. ]
      - [ 192., 65., 151., 101., 1., 74., 38., 32., 40., 130., 98., 0.,
          212., 51., 1., 119., 144., 117., 104., 98., 96., 212., 145.,
          72., 165., 178., 70., 2., 0., 114., 7., 34. ]
      - [ 194., 95., 30., 165., 35., 74., 54., 36., 60., 142., 66., 161.,
          236., 63., 3., 67., 182., 117., 169., 227., 100., 144., 1.,
          204., 229., 243., 74., 131., 0., 50., 45., 75. ]
      - [ 198., 124., 128., 5., 225., 30., 182., 136., 56., 238., 2.,
          13., 204., 62., 71., 155., 144., 69., 225., 103., 100., 212.,
          217., 106., 37., 50., 79., 7., 136., 119., 11., 87. ]
      - [ 206., 52., 146., 129., 163., 122., 178., 0., 57., 234., 3.,
          49., 204., 62., 71., 207., 179., 85., 185., 115., 52., 212.,
          137., 202., 14., 114., 79., 135., 130., 119., 15., 87. ]
      - [ 248., 140., 223., 126., 138., 96., 69., 183., 242., 19., 166.,
          56., 115., 247., 200., 123., 35., 246., 108., 136., 121., 79.,
          170., 35., 209., 235., 116., 24., 32., 240., 166., 40. ]
      - [ 4., 85., 29., 167., 17., 78., 55., 168., 44., 168., 74., 0.,
          212., 115., 9., 65., 144., 85., 9., 98., 96., 144., 89., 108.,
          229., 176., 15., 4., 0., 51., 5., 34. ]
      - [ 249., 162., 197., 122., 140., 165., 73., 91., 195., 83., 181.,
          222., 19., 225., 248., 191., 73., 130., 108., 156., 187., 111.,
          238., 17., 152., 202., 240., 124., 255., 200., 210., 32. ]
      - [ 198., 84., 180., 133., 1., 126., 51., 136., 56., 166., 71., 1.,
          204., 54., 11., 79., 144., 85., 169., 99., 32., 212., 217.,
          202., 5., 50., 75., 7., 130., 119., 13., 86. ]
      - [ 37., 177., 16., 65., 221., 93., 128., 173., 74., 113., 41.,
          24., 150., 16., 76., 180., 145., 6., 64., 120., 19., 56., 89.,
          21., 45., 24., 5., 118., 216., 10., 194., 134. ]
      - [ 72., 105., 16., 5., 81., 94., 48., 38., 105., 164., 102., 9.,
          174., 16., 7., 148., 128., 108., 224., 96., 68., 184., 209.,
          76., 39., 116., 0., 3., 66., 36., 79., 14. ]
      - [ 103., 98., 193., 70., 67., 16., 104., 24., 113., 130., 97.,
          220., 64., 0., 221., 190., 16., 140., 32., 142., 129., 86.,
          142., 66., 20., 60., 208., 46., 75., 183., 82., 132. ]
      - [ 68., 112., 145., 71., 65., 126., 50., 136., 105., 226., 43.,
          8., 222., 118., 77., 186., 144., 93., 224., 114., 1., 244.,
          249., 72., 5., 180., 5., 7., 192., 115., 7., 162. ]
      - [ 245., 98., 205., 84., 8., 44., 68., 16., 224., 178., 162.,
          220., 83., 1., 209., 59., 1., 196., 108., 14., 233., 71., 198.,
          0., 208., 170., 117., 56., 105., 241., 66., 40. ]
      - [ 205., 99., 148., 7., 97., 30., 102., 184., 121., 170., 103.,
          76., 198., 96., 31., 191., 144., 68., 100., 110., 228., 244.,
          201., 10., 39., 186., 101., 4., 74., 55., 75., 5. ]
      - [ 124., 160., 221., 114., 168., 73., 65., 221., 227., 61., 165.,
          24., 83., 245., 200., 58., 9., 210., 108., 24., 27., 99., 234.,
          49., 217., 201., 117., 124., 224., 130., 198., 32. ]
      - [ 34., 143., 106., 154., 223., 241., 187., 231., 159., 85., 92.,
          183., 40., 238., 54., 64., 239., 187., 147., 149., 150., 11.,
          46., 247., 126., 87., 158., 235., 149., 76., 189., 223. ]
      - [ 241., 120., 211., 86., 76., 28., 68., 87., 227., 250., 160.,
          92., 51., 176., 213., 191., 9., 230., 116., 12., 233., 111.,
          150., 32., 16., 138., 117., 56., 107., 240., 194., 44. ]
      - [ 18., 207., 76., 186., 154., 192., 14., 239., 134., 17., 152.,
          242., 33., 194., 168., 192., 107., 211., 140., 193., 94., 11.,
          14., 53., 184., 193., 190., 217., 53., 146., 172., 8. ]
      - [ 13., 93., 48., 199., 245., 30., 246., 184., 125., 232., 126.,
          68., 220., 122., 5., 228., 148., 125., 146., 106., 229., 176.,
          121., 238., 39., 255., 7., 6., 74., 51., 73., 167. ]
      - [ 244., 96., 141., 51., 136., 47., 65., 136., 242., 178., 161.,
          24., 211., 96., 73., 27., 1., 68., 104., 58., 40., 100., 219.,
          2., 201., 131., 117., 116., 192., 113., 82., 32. ]
      - [ 206., 52., 148., 37., 161., 126., 54., 8., 57., 174., 7., 1.,
          204., 54., 75., 223., 145., 85., 233., 114., 36., 212., 217.,
          74., 143., 115., 79., 7., 130., 119., 15., 23. ]
      - [ 245., 96., 213., 114., 140., 45., 65., 216., 194., 179., 177.,
          88., 83., 241., 217., 59., 9., 196., 124., 30., 171., 103.,
          254., 0., 216., 138., 117., 124., 233., 251., 82., 32. ]
      - [ 63., 170., 194., 24., 206., 177., 200., 82., 130., 23., 149.,
          255., 1., 136., 242., 142., 111., 162., 197., 157., 158., 79.,
          134., 177., 26., 65., 184., 253., 189., 205., 122., 196. ]
      - [ 196., 91., 28., 167., 34., 78., 55., 176., 172., 158., 6., 33.,
          246., 87., 3., 75., 134., 117., 237., 99., 96., 197., 9., 44.,
          225., 163., 107., 147., 0., 51., 5., 83. ]
      - [ 241., 240., 215., 94., 74., 128., 69., 87., 242., 83., 180.,
          124., 51., 209., 232., 63., 43., 224., 100., 136., 235., 111.,
          182., 33., 16., 170., 112., 56., 107., 144., 226., 40. ]
      - [ 244., 98., 223., 118., 42., 96., 73., 82., 163., 151., 181.,
          250., 51., 199., 201., 59., 47., 244., 108., 152., 42., 71.,
          166., 0., 208., 227., 112., 184., 229., 241., 102., 33. ]
      - [ 253., 112., 197., 118., 8., 12., 69., 152., 227., 250., 165.,
          92., 83., 243., 217., 255., 1., 196., 124., 14., 233., 71.,
          222., 32., 210., 235., 117., 60., 42., 241., 82., 48. ]
      - [ 185., 120., 250., 80., 74., 148., 193., 214., 209., 146., 180.,
          90., 51., 145., 245., 63., 44., 248., 68., 216., 233., 103.,
          182., 34., 83., 137., 112., 56., 107., 177., 98., 188. ]
      - [ 196., 64., 28., 167., 0., 74., 55., 168., 60., 166., 3., 1.,
          214., 87., 9., 75., 144., 85., 105., 98., 96., 212., 9., 46.,
          229., 178., 79., 1., 0., 51., 5., 66. ]
      - [ 253., 96., 145., 37., 40., 14., 71., 152., 96., 232., 163.,
          76., 211., 81., 89., 59., 16., 196., 108., 110., 201., 244.,
          217., 8., 197., 233., 97., 52., 104., 179., 66., 32. ]
      - [ 140., 81., 28., 231., 1., 78., 54., 168., 45., 164., 103., 0.,
          206., 95., 9., 19., 144., 85., 235., 98., 96., 240., 89., 76.,
          231., 241., 71., 7., 66., 51., 7., 162. ]
      - [ 249., 164., 173., 122., 141., 237., 65., 95., 210., 83., 165.,
          24., 51., 245., 88., 59., 73., 130., 120., 24., 59., 111.,
          250., 19., 219., 203., 212., 124., 241., 200., 214., 106. ]
      - [ 196., 32., 189., 103., 8., 110., 17., 8., 48., 182., 39., 24.,
          214., 55., 73., 27., 128., 85., 105., 114., 32., 68., 249.,
          40., 197., 163., 65., 21., 128., 113., 7., 98. ]
      - [ 13., 85., 17., 103., 48., 14., 102., 184., 108., 232., 107.,
          68., 215., 115., 137., 244., 148., 84., 28., 106., 193., 144.,
          89., 14., 165., 254., 37., 4., 10., 179., 65., 49. ]
      - [ 206., 209., 30., 231., 163., 66., 55., 165., 40., 36., 71.,
          33., 204., 119., 8., 83., 178., 85., 169., 98., 80., 144., 9.,
          108., 229., 177., 79., 71., 0., 51., 165., 35. ]
      - [ 37., 160., 192., 82., 204., 189., 192., 219., 210., 179., 185.,
          92., 19., 232., 220., 190., 9., 138., 98., 28., 159., 107.,
          222., 18., 24., 14., 21., 124., 249., 201., 218., 132. ]
      - [ 198., 173., 150., 154., 153., 225., 150., 226., 159., 23.,
          137., 25., 236., 250., 100., 135., 193., 115., 235., 83., 118.,
          75., 154., 255., 185., 86., 95., 123., 144., 95., 141., 142. ]
      - [ 213., 113., 149., 103., 8., 78., 71., 184., 224., 178., 163.,
          72., 215., 51., 9., 51., 0., 212., 108., 106., 105., 229.,
          217., 8., 225., 170., 101., 20., 104., 179., 66., 32. ]
      - [ 245., 98., 193., 82., 204., 25., 76., 216., 195., 178., 181.,
          222., 19., 192., 217., 191., 9., 196., 100., 94., 201., 103.,
          206., 0., 18., 136., 245., 60., 239., 249., 90., 36. ]
      - [ 197., 112., 149., 103., 1., 78., 103., 152., 104., 178., 35.,
          8., 214., 119., 73., 191., 144., 84., 104., 106., 97., 116.,
          249., 8., 165., 186., 69., 54., 72., 115., 66., 34. ]
      - [ 202., 222., 22., 181., 163., 74., 60., 39., 189., 190., 66.,
          181., 236., 39., 2., 75., 167., 119., 235., 163., 100., 220.,
          3., 206., 165., 114., 95., 131., 2., 116., 141., 91. ]
      - [ 70., 100., 152., 37., 193., 110., 55., 136., 57., 166., 39.,
          9., 204., 55., 75., 26., 145., 85., 233., 114., 32., 212.,
          217., 74., 205., 182., 77., 7., 130., 119., 7., 98. ]
      - [ 198., 66., 148., 165., 1., 10., 54., 172., 60., 166., 66., 17.,
          204., 98., 11., 199., 144., 85., 169., 99., 100., 212., 201.,
          202., 165., 50., 79., 7., 0., 55., 13., 6. ]
      - [ 68., 32., 145., 71., 193., 110., 51., 8., 59., 182., 47., 24.,
          206., 119., 73., 94., 145., 85., 232., 50., 0., 84., 249., 66.,
          197., 182., 69., 39., 130., 115., 7., 34. ]
      - [ 130., 120., 186., 180., 65., 204., 180., 198., 189., 206., 66.,
          5., 172., 158., 103., 75., 164., 123., 251., 65., 102., 221.,
          146., 235., 229., 114., 94., 11., 8., 20., 47., 223. ]
      - [ 212., 80., 157., 101., 8., 78., 69., 176., 160., 186., 162.,
          8., 215., 23., 1., 123., 128., 84., 108., 106., 105., 69.,
          241., 8., 225., 163., 101., 20., 96., 49., 6., 34. ]
      - [ 208., 207., 95., 236., 58., 66., 79., 53., 164., 8., 154.,
          224., 119., 55., 160., 115., 102., 246., 109., 234., 121.,
          137., 1., 45., 240., 161., 98., 144., 32., 178., 164., 41. ]
      - [ 245., 32., 213., 82., 136., 105., 64., 219., 226., 179., 161.,
          88., 19., 241., 201., 191., 9., 194., 108., 24., 155., 103.,
          238., 32., 152., 138., 117., 124., 235., 193., 194., 32. ]
      - [ 220., 106., 215., 116., 10., 104., 65., 18., 225., 178., 166.,
          120., 27., 163., 193., 63., 39., 244., 236., 90., 8., 71.,
          130., 32., 211., 194., 113., 57., 226., 241., 6., 33. ]
      - [ 185., 72., 210., 92., 77., 141., 65., 86., 208., 128., 228.,
          72., 51., 145., 161., 180., 72., 168., 68., 8., 72., 175., 66.,
          40., 81., 233., 48., 24., 115., 136., 82., 168. ]
      - [ 237., 112., 149., 71., 9., 126., 65., 8., 105., 186., 39., 24.,
          222., 17., 73., 191., 145., 84., 232., 122., 41., 100., 249.,
          0., 135., 251., 65., 54., 194., 119., 74., 38. ]
      - [ 198., 82., 156., 165., 33., 42., 50., 8., 40., 174., 67., 161.,
          204., 55., 11., 91., 150., 85., 169., 99., 36., 212., 201.,
          200., 198., 115., 75., 135., 128., 119., 15., 67. ]
      - [ 39., 177., 185., 65., 213., 125., 178., 154., 91., 121., 41.,
          92., 148., 124., 76., 184., 149., 27., 18., 16., 151., 48.,
          248., 82., 15., 29., 1., 110., 216., 75., 203., 151. ]
      - [ 37., 105., 17., 1., 213., 15., 166., 128., 106., 160., 42.,
          72., 214., 16., 69., 164., 144., 76., 66., 122., 17., 176.,
          89., 12., 45., 28., 5., 102., 200., 59., 83., 134. ]
      - [ 208., 92., 191., 244., 2., 66., 53., 38., 188., 150., 2., 49.,
          246., 55., 33., 91., 163., 117., 105., 2., 96., 205., 179.,
          106., 193., 162., 90., 3., 0., 112., 37., 122. ]
      - [ 236., 100., 24., 39., 41., 79., 87., 168., 123., 190., 37.,
          24., 198., 81., 75., 19., 145., 68., 104., 98., 96., 116.,
          217., 26., 229., 211., 69., 55., 80., 123., 78., 2. ]
      - [ 70., 77., 150., 5., 19., 74., 54., 32., 56., 160., 74., 33.,
          204., 55., 1., 214., 178., 117., 168., 98., 64., 144., 129.,
          78., 165., 182., 79., 3., 0., 115., 7., 2. ]
      - [ 252., 224., 148., 114., 137., 45., 66., 152., 163., 178., 161.,
          88., 198., 113., 73., 159., 145., 212., 236., 122., 40., 103.,
          219., 0., 219., 211., 69., 126., 202., 123., 74., 34. ]
      - [ 237., 121., 153., 101., 36., 14., 103., 184., 96., 232., 38.,
          76., 211., 17., 81., 51., 144., 68., 100., 110., 201., 240.,
          249., 40., 231., 249., 101., 20., 72., 179., 66., 32. ]
      - [ 53., 177., 121., 66., 220., 205., 65., 217., 66., 121., 177.,
          88., 19., 209., 216., 48., 25., 138., 84., 56., 155., 43.,
          126., 21., 89., 140., 33., 124., 249., 138., 210., 32. ]
      - [ 134., 69., 49., 135., 81., 90., 182., 168., 44., 164., 75., 1.,
          204., 78., 15., 196., 144., 93., 131., 99., 68., 144., 105.,
          204., 37., 48., 15., 7., 0., 55., 13., 198. ]
      - [ 245., 103., 204., 103., 140., 46., 70., 152., 114., 178., 171.,
          76., 211., 97., 217., 59., 17., 196., 108., 110., 233., 116.,
          205., 42., 172., 235., 101., 52., 232., 251., 218., 0. ]
      - [ 132., 93., 29., 165., 49., 78., 55., 176., 44., 168., 74., 64.,
          220., 87., 1., 65., 148., 85., 27., 99., 97., 144., 89., 76.,
          229., 178., 75., 6., 8., 51., 5., 51. ]
      - [ 229., 103., 141., 39., 172., 46., 71., 184., 114., 178., 171.,
          76., 211., 97., 217., 59., 17., 196., 108., 110., 233., 112.,
          205., 42., 236., 171., 101., 52., 232., 251., 210., 32. ]
      - [ 220., 80., 157., 182., 9., 110., 85., 168., 165., 182., 131.,
          25., 215., 119., 9., 91., 129., 213., 109., 98., 104., 69.,
          219., 8., 193., 243., 77., 21., 0., 113., 4., 98. ]
      - [ 208., 205., 21., 239., 136., 66., 71., 181., 164., 16., 130.,
          240., 247., 55., 128., 247., 96., 214., 108., 234., 105., 201.,
          65., 45., 161., 162., 228., 16., 34., 176., 132., 56. ]
      - [ 10., 57., 179., 69., 209., 220., 180., 7., 43., 128., 110., 0.,
          172., 183., 68., 244., 128., 127., 146., 0., 65., 152., 176.,
          202., 47., 252., 22., 3., 2., 20., 135., 190. ]
      - [ 82., 71., 82., 167., 50., 66., 55., 45., 56., 140., 74., 161.,
          236., 103., 139., 80., 54., 117., 173., 226., 96., 144., 129.,
          78., 228., 167., 46., 131., 32., 50., 39., 75. ]
      - [ 125., 96., 208., 103., 9., 74., 68., 9., 98., 162., 167., 8.,
          83., 17., 73., 190., 16., 196., 104., 42., 72., 102., 205., 0.,
          82., 233., 69., 52., 99., 242., 74., 0. ]
      - [ 108., 66., 145., 69., 96., 14., 110., 24., 32., 170., 98.,
          192., 192., 39., 129., 222., 20., 84., 224., 106., 64., 212.,
          193., 8., 37., 180., 101., 4., 2., 243., 6., 32. ]
      - [ 208., 4., 13., 183., 136., 107., 69., 41., 148., 246., 131.,
          17., 215., 119., 8., 75., 129., 21., 109., 35., 121., 197.,
          75., 0., 193., 227., 123., 20., 32., 104., 149., 114. ]
      - [ 253., 106., 196., 84., 108., 59., 76., 154., 83., 186., 176.,
          252., 83., 128., 209., 191., 11., 196., 124., 30., 169., 102.,
          207., 34., 22., 138., 117., 188., 239., 249., 82., 5. ]
      - [ 129., 25., 23., 83., 36., 140., 105., 23., 236., 73., 114.,
          84., 182., 145., 48., 125., 132., 34., 20., 12., 145., 184.,
          48., 97., 5., 184., 114., 64., 72., 128., 241., 57. ]
      - [ 248., 208., 223., 126., 10., 192., 21., 103., 224., 83., 164.,
          48., 51., 151., 168., 123., 99., 179., 236., 128., 107., 79.,
          162., 33., 211., 227., 114., 25., 97., 144., 166., 57. ]
      - [ 253., 112., 157., 118., 8., 108., 65., 152., 226., 178., 165.,
          24., 83., 113., 73., 59., 1., 212., 108., 58., 41., 103., 251.,
          0., 209., 203., 113., 60., 226., 241., 66., 34. ]
      - [ 2., 88., 176., 164., 65., 68., 51., 0., 9., 0., 0., 1., 140.,
          31., 1., 2., 128., 85., 51., 64., 0., 0., 144., 192., 69.,
          176., 10., 3., 0., 49., 5., 34. ]
      - [ 117., 96., 209., 64., 200., 105., 65., 136., 226., 178., 169.,
          72., 19., 177., 201., 58., 1., 212., 96., 26., 9., 99., 250.,
          0., 25., 140., 101., 60., 232., 243., 66., 32. ]
      - [ 245., 182., 237., 122., 174., 161., 73., 223., 210., 123.,
          181., 254., 51., 225., 248., 59., 79., 194., 124., 156., 187.,
          111., 238., 51., 216., 203., 245., 252., 253., 200., 210., 49. ]
      - [ 249., 207., 197., 95., 140., 36., 79., 189., 150., 27., 167.,
          212., 115., 97., 152., 207., 65., 198., 124., 206., 249., 104.,
          95., 53., 40., 170., 244., 144., 251., 251., 208., 40. ]
      - [ 7., 66., 128., 7., 69., 50., 162., 136., 73., 162., 65., 226.,
          200., 64., 157., 140., 88., 76., 130., 103., 4., 180., 77.,
          202., 4., 20., 139., 6., 15., 63., 89., 132. ]
      - [ 112., 162., 236., 186., 140., 161., 73., 223., 130., 23., 133.,
          159., 51., 225., 122., 91., 73., 130., 125., 156., 26., 79.,
          202., 49., 216., 131., 244., 252., 180., 200., 246., 106. ]
      - [ 244., 100., 204., 35., 136., 43., 71., 136., 114., 178., 163.,
          136., 211., 97., 89., 27., 25., 196., 104., 122., 40., 118.,
          205., 42., 232., 135., 101., 52., 225., 243., 82., 0. ]
      - [ 248., 204., 132., 22., 137., 92., 70., 164., 179., 179., 163.,
          24., 98., 99., 8., 215., 1., 230., 232., 2., 108., 75., 219.,
          47., 171., 242., 85., 27., 130., 118., 206., 14. ]
      - [ 77., 79., 60., 101., 52., 30., 103., 48., 105., 232., 126.,
          76., 223., 33., 151., 116., 148., 68., 108., 110., 229., 176.,
          241., 14., 230., 255., 37., 0., 74., 243., 75., 37. ]
      - [ 101., 34., 209., 67., 232., 47., 67., 152., 98., 185., 61.,
          88., 211., 97., 221., 62., 29., 76., 100., 62., 153., 112.,
          233., 0., 15., 156., 37., 116., 194., 227., 66., 161. ]
      - [ 53., 98., 192., 0., 108., 29., 74., 212., 67., 170., 176.,
          206., 3., 0., 209., 174., 25., 200., 68., 94., 143., 118.,
          204., 32., 26., 12., 165., 180., 239., 191., 90., 132. ]
      - [ 241., 120., 194., 84., 12., 141., 76., 87., 192., 130., 176.,
          76., 51., 145., 209., 63., 76., 166., 116., 12., 233., 239.,
          214., 8., 144., 136., 244., 56., 109., 248., 82., 40. ]
      - [ 249., 176., 205., 122., 140., 225., 65., 223., 194., 83., 181.,
          90., 51., 241., 248., 59., 73., 130., 124., 24., 187., 111.,
          254., 19., 218., 203., 244., 124., 253., 200., 242., 32. ]
      - [ 196., 96., 156., 39., 9., 110., 21., 8., 40., 190., 131., 25.,
          214., 119., 73., 91., 145., 85., 232., 34., 40., 196., 217.,
          0., 197., 243., 69., 23., 128., 115., 7., 2. ]
      - [ 68., 32., 145., 69., 193., 106., 34., 9., 104., 161., 43., 88.,
          214., 51., 72., 190., 145., 92., 64., 50., 17., 112., 201.,
          64., 13., 148., 5., 102., 192., 99., 131., 32. ]
      - [ 142., 69., 48., 135., 65., 94., 182., 172., 57., 166., 71., 1.,
          204., 126., 15., 197., 144., 93., 131., 99., 100., 148., 153.,
          234., 39., 119., 79., 7., 2., 119., 13., 198. ]
      - [ 22., 134., 44., 171., 28., 163., 155., 200., 6., 53., 157.,
          147., 197., 76., 122., 72., 221., 9., 139., 181., 30., 0., 77.,
          150., 200., 7., 171., 245., 180., 79., 21., 194. ]
      - [ 124., 112., 253., 118., 8., 108., 65., 218., 227., 243., 165.,
          24., 19., 247., 201., 59., 1., 212., 108., 26., 11., 103.,
          250., 0., 211., 203., 117., 60., 227., 241., 70., 32. ]
      - [ 222., 36., 148., 22., 139., 96., 20., 143., 178., 183., 160.,
          185., 8., 166., 73., 31., 1., 215., 232., 144., 58., 71., 203.,
          66., 153., 134., 93., 63., 130., 117., 135., 2. ]
      - [ 92., 96., 159., 102., 136., 110., 87., 136., 160., 182., 167.,
          8., 215., 119., 73., 91., 176., 245., 109., 98., 8., 193.,
          187., 40., 209., 227., 101., 21., 160., 115., 7., 98. ]
      - [ 68., 141., 17., 103., 145., 108., 22., 164., 104., 0., 42., 8.,
          246., 115., 9., 82., 128., 87., 72., 98., 48., 40., 217., 45.,
          237., 180., 4., 83., 192., 115., 131., 42. ]
      - [ 244., 32., 221., 114., 136., 109., 65., 152., 226., 179., 165.,
          24., 83., 119., 201., 59., 1., 212., 108., 58., 59., 103.,
          251., 0., 217., 139., 117., 124., 224., 225., 70., 32. ]
      - [ 125., 71., 69., 103., 180., 14., 79., 184., 96., 232., 187.,
          76., 83., 97., 153., 55., 22., 196., 108., 110., 201., 176.,
          205., 44., 224., 168., 101., 148., 111., 243., 82., 33. ]
      - [ 81., 133., 196., 62., 136., 32., 76., 189., 224., 19., 139.,
          80., 115., 99., 152., 114., 81., 134., 108., 172., 123., 73.,
          207., 39., 184., 174., 244., 88., 184., 194., 240., 0. ]
      - [ 204., 36., 149., 97., 129., 110., 51., 8., 58., 191., 39., 24.,
          206., 119., 73., 31., 145., 85., 232., 50., 48., 84., 201., 0.,
          205., 146., 65., 119., 194., 99., 7., 34. ]
      - [ 117., 35., 200., 12., 200., 43., 71., 216., 82., 180., 169.,
          237., 67., 224., 203., 26., 25., 204., 104., 126., 12., 99.,
          207., 16., 24., 0., 101., 60., 241., 251., 82., 128. ]
      - [ 68., 229., 145., 71., 177., 78., 54., 168., 104., 168., 43.,
          8., 206., 115., 73., 182., 145., 85., 232., 114., 64., 208.,
          217., 76., 173., 150., 5., 39., 192., 115., 135., 34. ]
      - [ 117., 48., 221., 98., 168., 109., 67., 152., 98., 243., 165.,
          88., 211., 81., 201., 58., 25., 212., 108., 122., 27., 103.,
          251., 0., 201., 201., 101., 124., 232., 227., 66., 32. ]
      - [ 135., 85., 49., 133., 53., 14., 190., 32., 60., 232., 91., 69.,
          220., 30., 13., 96., 148., 93., 19., 103., 225., 144., 81.,
          206., 37., 60., 10., 130., 8., 55., 1., 211. ]
      - [ 241., 34., 213., 84., 136., 40., 68., 27., 226., 179., 160.,
          88., 19., 161., 201., 191., 1., 198., 104., 24., 41., 103.,
          198., 0., 24., 170., 117., 60., 232., 240., 66., 32. ]
      - [ 198., 94., 158., 165., 35., 74., 55., 32., 57., 174., 66., 33.,
          204., 55., 3., 91., 178., 117., 233., 98., 96., 212., 129.,
          74., 229., 178., 79., 131., 0., 119., 5., 67. ]
      - [ 77., 16., 17., 97., 49., 110., 115., 16., 109., 232., 110.,
          64., 222., 23., 1., 244., 148., 20., 120., 120., 17., 144.,
          113., 94., 143., 253., 3., 70., 202., 3., 3., 51. ]
      - [ 213., 149., 29., 122., 136., 100., 65., 57., 228., 121., 167.,
          88., 87., 119., 8., 115., 69., 150., 124., 42., 57., 9., 123.,
          21., 217., 235., 97., 92., 56., 130., 128., 49. ]
      - [ 212., 157., 191., 254., 138., 226., 77., 186., 166., 87., 142.,
          176., 215., 119., 33., 91., 103., 246., 125., 138., 57., 73.,
          59., 55., 217., 227., 250., 212., 176., 225., 164., 114. ]
      - [ 196., 48., 149., 81., 1., 110., 49., 8., 122., 179., 35., 24.,
          214., 53., 73., 59., 129., 84., 104., 16., 33., 116., 241., 0.,
          141., 154., 85., 54., 192., 113., 71., 34. ]
      - [ 69., 213., 157., 118., 168., 108., 71., 157., 174., 187., 171.,
          88., 247., 115., 73., 123., 129., 86., 104., 90., 49., 65.,
          219., 32., 233., 171., 117., 84., 136., 115., 129., 32. ]
      - [ 229., 116., 157., 103., 229., 46., 103., 152., 122., 250., 35.,
          92., 210., 113., 73., 59., 145., 68., 120., 122., 161., 116.,
          249., 2., 77., 154., 69., 52., 200., 243., 66., 32. ]
      - [ 197., 117., 149., 103., 161., 78., 103., 57., 120., 170., 35.,
          8., 214., 51., 9., 115., 144., 84., 104., 106., 97., 240.,
          249., 8., 229., 186., 69., 20., 64., 114., 195., 34. ]
      - [ 100., 112., 145., 103., 1., 110., 71., 152., 50., 170., 35.,
          72., 214., 119., 73., 122., 145., 84., 104., 106., 41., 84.,
          249., 10., 197., 190., 69., 52., 192., 115., 70., 32. ]
      - [ 241., 172., 199., 190., 140., 169., 68., 103., 210., 147.,
          160., 90., 51., 161., 112., 155., 105., 162., 104., 152., 122.,
          111., 134., 51., 184., 130., 212., 56., 245., 216., 242., 8. ]
      - [ 253., 96., 213., 70., 8., 40., 71., 152., 227., 178., 161.,
          88., 83., 65., 217., 191., 25., 196., 108., 106., 233., 103.,
          239., 32., 144., 202., 101., 60., 227., 243., 66., 36. ]
      - [ 229., 96., 144., 37., 197., 111., 118., 136., 120., 162., 34.,
          8., 198., 56., 67., 26., 144., 68., 64., 122., 36., 240., 217.,
          10., 173., 152., 69., 55., 192., 123., 91., 2. ]
      - [ 196., 76., 157., 231., 129., 110., 55., 160., 40., 166., 43.,
          0., 214., 119., 73., 91., 145., 85., 105., 98., 64., 212.,
          249., 106., 197., 178., 69., 7., 128., 115., 7., 34. ]
      - [ 228., 36., 157., 35., 137., 111., 19., 136., 122., 182., 35.,
          25., 198., 112., 73., 27., 145., 84., 232., 114., 52., 84.,
          249., 2., 141., 147., 69., 119., 192., 115., 7., 66. ]
      - [ 253., 65., 212., 86., 42., 28., 68., 188., 241., 146., 163.,
          92., 115., 112., 137., 191., 34., 196., 108., 110., 237., 103.,
          159., 40., 178., 234., 101., 24., 106., 177., 202., 12. ]
      - [ 196., 32., 156., 51., 137., 47., 16., 136., 170., 182., 163.,
          25., 198., 112., 73., 27., 129., 68., 104., 114., 56., 69.,
          219., 0., 201., 146., 69., 119., 192., 113., 3., 2. ]
      - [ 220., 64., 156., 182., 9., 96., 16., 8., 176., 23., 135., 17.,
          207., 110., 75., 91., 129., 21., 237., 35., 44., 69., 203., 2.,
          193., 243., 90., 31., 128., 113., 13., 66. ]
      - [ 202., 93., 23., 229., 33., 78., 55., 36., 60., 142., 66., 1.,
          236., 55., 1., 83., 176., 117., 169., 98., 96., 144., 17.,
          236., 229., 243., 78., 3., 0., 50., 5., 43. ]
      - [ 253., 48., 149., 115., 9., 108., 65., 24., 226., 178., 163.,
          88., 215., 81., 73., 187., 1., 212., 108., 58., 41., 101.,
          219., 0., 193., 203., 113., 52., 232., 97., 66., 32. ]
      - [ 112., 202., 207., 254., 138., 192., 77., 215., 130., 31., 148.,
          187., 51., 167., 224., 91., 111., 178., 109., 136., 10., 79.,
          134., 49., 208., 163., 252., 184., 181., 208., 180., 121. ]
      - [ 241., 141., 95., 124., 136., 132., 77., 55., 224., 16., 162.,
          88., 115., 115., 160., 115., 64., 166., 124., 232., 121., 11.,
          18., 61., 240., 170., 224., 88., 57., 128., 224., 40. ]
      - [ 245., 100., 201., 67., 140., 47., 67., 152., 82., 243., 173.,
          92., 211., 97., 217., 58., 25., 196., 124., 62., 187., 102.,
          255., 2., 204., 143., 117., 124., 233., 251., 82., 32. ]
      - [ 124., 56., 211., 80., 216., 236., 65., 214., 227., 177., 168.,
          88., 19., 179., 197., 190., 33., 222., 100., 24., 27., 107.,
          178., 32., 25., 140., 53., 124., 227., 193., 198., 40. ]
      - [ 241., 133., 85., 102., 184., 14., 70., 189., 224., 56., 171.,
          92., 115., 113., 136., 115., 16., 198., 108., 110., 249., 97.,
          89., 45., 176., 170., 100., 16., 104., 242., 194., 32. ]
      - [ 204., 125., 149., 37., 161., 110., 54., 180., 48., 234., 2.,
          89., 223., 60., 65., 187., 149., 85., 241., 99., 97., 212.,
          217., 42., 229., 227., 109., 4., 200., 113., 131., 18. ]
      - [ 244., 120., 157., 116., 136., 111., 69., 152., 226., 242.,
          163., 24., 83., 53., 65., 59., 1., 212., 108., 122., 41., 103.,
          251., 0., 217., 203., 101., 60., 224., 241., 70., 34. ]
      - [ 142., 64., 48., 133., 65., 90., 182., 8., 57., 38., 71., 1.,
          204., 28., 15., 133., 144., 29., 131., 99., 100., 148., 97.,
          202., 39., 112., 10., 7., 2., 55., 13., 198. ]
      - [ 101., 113., 209., 101., 228., 14., 71., 152., 96., 232., 43.,
          76., 211., 113., 217., 50., 16., 196., 124., 110., 201., 112.,
          249., 8., 229., 172., 101., 52., 232., 243., 66., 32. ]
      - [ 49., 185., 99., 88., 118., 193., 235., 119., 193., 65., 120.,
          230., 49., 149., 180., 52., 110., 186., 22., 136., 195., 187.,
          52., 255., 48., 12., 176., 168., 127., 136., 242., 189. ]
      - [ 100., 101., 144., 3., 168., 43., 6., 136., 98., 186., 41., 72.,
          194., 96., 73., 26., 145., 68., 64., 114., 16., 112., 201., 0.,
          44., 146., 69., 116., 192., 115., 66., 0. ]
      - [ 142., 88., 46., 165., 1., 74., 183., 128., 40., 230., 6., 1.,
          140., 30., 67., 11., 160., 117., 153., 99., 68., 148., 49.,
          40., 193., 193., 75., 7., 0., 55., 5., 82. ]
      - [ 245., 38., 205., 114., 172., 45., 69., 152., 114., 251., 181.,
          92., 83., 97., 217., 59., 25., 196., 108., 62., 185., 103.,
          255., 2., 216., 139., 117., 60., 237., 251., 210., 32. ]
      - [ 253., 96., 193., 82., 76., 57., 64., 216., 195., 179., 161.,
          88., 83., 193., 221., 191., 9., 196., 100., 90., 139., 103.,
          238., 32., 24., 202., 113., 60., 235., 251., 82., 36. ]
      - [ 245., 128., 172., 122., 140., 37., 73., 153., 194., 115., 133.,
          28., 211., 64., 90., 43., 73., 130., 120., 28., 187., 103.,
          255., 17., 201., 219., 209., 124., 216., 201., 208., 96. ]
      - [ 92., 120., 147., 100., 1., 76., 86., 0., 121., 162., 106., 8.,
          223., 51., 65., 56., 145., 252., 36., 98., 73., 20., 147., 2.,
          149., 255., 21., 14., 226., 115., 3., 34. ]
      - [ 165., 162., 212., 26., 205., 189., 128., 207., 219., 19., 181.,
          28., 34., 232., 94., 191., 201., 138., 226., 21., 190., 111.,
          206., 49., 26., 91., 85., 127., 219., 76., 218., 140. ]
      - [ 241., 141., 86., 6., 136., 14., 68., 53., 240., 146., 162.,
          92., 115., 32., 144., 115., 32., 230., 104., 110., 233., 235.,
          149., 12., 48., 170., 100., 16., 104., 240., 194., 8. ]
      - [ 121., 169., 237., 112., 142., 137., 77., 223., 130., 181.,
          180., 218., 19., 165., 208., 59., 43., 130., 108., 156., 27.,
          107., 238., 49., 216., 138., 245., 252., 245., 200., 210.,
          104. ]
      - [ 245., 99., 204., 34., 204., 3., 206., 216., 66., 242., 177.,
          239., 83., 105., 217., 27., 89., 196., 116., 255., 201., 103.,
          207., 48., 120., 9., 229., 188., 253., 251., 210., 144. ]
      - [ 240., 105., 201., 100., 10., 75., 71., 228., 112., 166., 162.,
          8., 51., 33., 65., 19., 40., 228., 96., 106., 104., 247., 197.,
          40., 240., 160., 101., 49., 97., 241., 86., 40. ]
      - [ 198., 48., 176., 131., 225., 110., 50., 136., 57., 166., 3.,
          1., 204., 118., 75., 15., 145., 85., 161., 115., 32., 212.,
          217., 234., 13., 18., 79., 7., 130., 119., 7., 102. ]
      - [ 33., 60., 145., 80., 36., 237., 65., 22., 242., 91., 40., 92.,
          179., 145., 208., 56., 1., 58., 92., 24., 139., 108., 114.,
          32., 201., 136., 48., 112., 200., 192., 194., 56. ]
      - [ 76., 34., 145., 71., 225., 46., 98., 136., 43., 186., 43., 72.,
          206., 99., 73., 158., 21., 84., 104., 122., 0., 80., 201., 0.,
          13., 180., 69., 54., 194., 243., 2., 32. ]
      - [ 245., 148., 213., 90., 152., 36., 67., 184., 210., 27., 169.,
          92., 83., 113., 248., 191., 17., 66., 4., 62., 187., 103., 26.,
          55., 8., 142., 112., 124., 250., 195., 210., 33. ]
      - [ 253., 97., 21., 70., 12., 79., 71., 184., 98., 184., 161., 72.,
          83., 81., 201., 191., 24., 196., 108., 106., 105., 103., 249.,
          24., 161., 136., 101., 60., 106., 187., 66., 32. ]
      - [ 198., 48., 144., 33., 1., 110., 49., 8., 40., 183., 7., 17.,
          204., 55., 75., 26., 145., 29., 225., 50., 16., 212., 217.,
          64., 197., 144., 75., 7., 128., 103., 7., 98. ]
      - [ 117., 189., 219., 122., 202., 236., 71., 255., 242., 83., 169.,
          120., 115., 243., 200., 50., 39., 218., 108., 26., 91., 107.,
          186., 51., 249., 239., 117., 124., 233., 210., 226., 57. ]
      - [ 241., 74., 71., 126., 44., 129., 77., 252., 194., 26., 176.,
          254., 51., 193., 241., 59., 110., 224., 124., 206., 235., 103.,
          142., 49., 144., 138., 244., 184., 125., 185., 114., 41. ]
      - [ 196., 69., 29., 101., 1., 78., 119., 40., 104., 170., 35., 8.,
          214., 51., 9., 83., 144., 84., 104., 98., 96., 212., 217., 8.,
          229., 178., 69., 6., 64., 115., 7., 34. ]
      - [ 249., 160., 237., 122., 204., 229., 65., 91., 210., 115., 165.,
          24., 19., 245., 88., 59., 73., 130., 120., 28., 187., 111.,
          250., 19., 219., 139., 241., 124., 249., 200., 210., 112. ]
      - [ 245., 108., 149., 118., 136., 108., 69., 154., 226., 178.,
          162., 88., 87., 113., 65., 59., 1., 212., 108., 106., 105.,
          101., 251., 34., 153., 138., 117., 60., 224., 241., 66., 32. ]
      - [ 249., 106., 197., 90., 12., 161., 73., 82., 194., 91., 180.,
          254., 51., 193., 240., 63., 73., 162., 124., 156., 139., 111.,
          238., 49., 208., 138., 240., 184., 255., 217., 114., 56. ]
      - [ 206., 68., 180., 149., 193., 114., 180., 174., 57., 182., 6.,
          49., 204., 62., 79., 95., 129., 85., 225., 163., 100., 84.,
          203., 194., 69., 50., 95., 7., 2., 117., 143., 70. ]
      - [ 71., 52., 181., 81., 173., 124., 169., 3., 251., 251., 15.,
          16., 156., 60., 213., 110., 129., 87., 120., 25., 179., 72.,
          247., 194., 13., 62., 95., 102., 128., 97., 151., 101. ]
      - [ 2., 146., 0., 145., 241., 177., 176., 3., 31., 29., 65., 53.,
          140., 10., 70., 204., 133., 11., 131., 17., 22., 156., 64.,
          211., 14., 20., 26., 67., 146., 4., 141., 199. ]
      - [ 12., 36., 152., 103., 145., 110., 51., 10., 57., 167., 111.,
          17., 204., 55., 11., 16., 145., 95., 129., 48., 48., 144., 89.,
          78., 239., 245., 5., 7., 130., 99., 7., 194. ]
      - [ 228., 109., 140., 37., 128., 10., 70., 168., 112., 166., 162.,
          8., 211., 96., 65., 27., 16., 196., 104., 106., 104., 244.,
          205., 8., 228., 130., 69., 52., 96., 115., 82., 0. ]
      - [ 196., 112., 156., 101., 1., 110., 55., 8., 41., 166., 39., 9.,
          206., 55., 73., 91., 144., 85., 233., 98., 32., 212., 217.,
          72., 197., 242., 69., 7., 130., 115., 7., 98. ]
      - [ 191., 38., 228., 18., 236., 177., 200., 218., 211., 179., 149.,
          254., 3., 232., 223., 175., 77., 138., 102., 156., 190., 103.,
          238., 146., 24., 14., 245., 252., 247., 205., 218., 196. ]
      - [ 200., 125., 151., 87., 137., 94., 52., 167., 249., 178., 34.,
          24., 238., 241., 69., 191., 129., 118., 232., 66., 96., 237.,
          211., 106., 167., 242., 85., 19., 66., 112., 135., 14. ]
      - [ 205., 112., 215., 71., 32., 14., 102., 56., 113., 170., 35.,
          72., 211., 115., 201., 191., 50., 212., 108., 106., 105., 244.,
          217., 10., 164., 170., 101., 4., 106., 243., 66., 33. ]
      - [ 4., 81., 57., 231., 117., 78., 191., 56., 44., 236., 79., 1.,
          220., 95., 11., 96., 148., 93., 19., 99., 64., 176., 121.,
          204., 231., 189., 11., 7., 0., 51., 5., 243. ]
      - [ 3., 87., 16., 133., 49., 14., 190., 56., 44., 168., 90., 68.,
          220., 50., 1., 65., 150., 85., 19., 103., 224., 144., 65.,
          204., 165., 48., 47., 134., 8., 50., 1., 139. ]
      - [ 69., 110., 144., 69., 80., 46., 38., 0., 104., 168., 106., 68.,
          196., 34., 133., 190., 16., 76., 64., 106., 1., 240., 129.,
          74., 36., 180., 5., 4., 200., 115., 11., 132. ]
      - [ 253., 77., 103., 100., 142., 0., 77., 245., 192., 178., 176.,
          218., 83., 33., 145., 59., 46., 246., 124., 234., 233., 103.,
          150., 40., 240., 169., 229., 152., 109., 240., 242., 40. ]
      - [ 134., 81., 57., 231., 113., 78., 179., 40., 44., 232., 67., 1.,
          220., 95., 9., 96., 148., 93., 147., 99., 65., 144., 121.,
          204., 101., 113., 11., 7., 0., 51., 5., 243. ]
      - [ 6., 85., 60., 167., 49., 78., 182., 40., 60., 236., 75., 1.,
          204., 94., 15., 65., 148., 93., 147., 99., 100., 144., 89.,
          204., 229., 53., 11., 7., 0., 51., 13., 211. ]
      - [ 183., 87., 105., 11., 246., 3., 143., 249., 80., 234., 89.,
          231., 81., 76., 191., 33., 126., 200., 23., 231., 229., 178.,
          44., 62., 96., 8., 173., 164., 61., 251., 240., 213. ]
      - [ 204., 72., 29., 229., 1., 74., 119., 168., 32., 166., 103., 0.,
          223., 23., 9., 91., 16., 85., 104., 98., 96., 212., 249., 40.,
          229., 243., 67., 5., 0., 51., 5., 98. ]
      - [ 245., 75., 71., 92., 44., 0., 76., 248., 193., 26., 176., 222.,
          115., 193., 241., 255., 76., 228., 108., 238., 233., 103.,
          238., 33., 146., 234., 229., 184., 127., 185., 114., 40. ]
      - [ 245., 165., 204., 39., 136., 42., 70., 171., 112., 162., 143.,
          152., 211., 97., 153., 19., 17., 198., 104., 46., 120., 212.,
          205., 14., 232., 175., 229., 52., 224., 240., 218., 0. ]
      - [ 244., 98., 204., 50., 140., 57., 192., 202., 210., 179., 177.,
          187., 67., 232., 223., 27., 73., 196., 108., 157., 62., 103.,
          207., 18., 152., 195., 245., 253., 245., 249., 90., 0. ]
      - [ 87., 182., 149., 178., 170., 52., 28., 159., 187., 251., 155.,
          245., 204., 254., 204., 254., 167., 87., 253., 149., 183., 73.,
          143., 226., 152., 114., 127., 254., 140., 116., 171., 85. ]
      - [ 204., 72., 29., 101., 1., 74., 119., 168., 33., 166., 103., 0.,
          215., 23., 9., 91., 16., 213., 105., 98., 96., 212., 249., 40.,
          231., 243., 65., 5., 0., 51., 4., 34. ]
      - [ 212., 88., 157., 116., 8., 78., 69., 180., 224., 178., 162.,
          88., 215., 51., 65., 123., 1., 212., 108., 106., 105., 69.,
          219., 40., 209., 171., 117., 20., 96., 241., 66., 40. ]
      - [ 252., 160., 217., 122., 138., 201., 65., 216., 227., 49., 181.,
          120., 19., 209., 200., 58., 9., 144., 76., 24., 27., 111.,
          238., 49., 217., 201., 49., 124., 241., 137., 70., 32. ]
      - [ 231., 99., 69., 70., 76., 27., 71., 168., 65., 244., 161.,
          204., 66., 64., 221., 191., 24., 196., 96., 110., 233., 99.,
          237., 40., 48., 8., 197., 60., 111., 191., 82., 100. ]
      - [ 101., 113., 217., 101., 36., 14., 71., 184., 96., 232., 42.,
          76., 211., 49., 193., 50., 16., 196., 124., 106., 201., 240.,
          249., 8., 229., 172., 101., 52., 104., 243., 66., 33. ]
      - [ 240., 166., 142., 58., 138., 161., 65., 219., 146., 19., 161.,
          88., 51., 225., 104., 27., 9., 130., 108., 24., 58., 79., 142.,
          51., 216., 131., 112., 120., 241., 192., 162., 0. ]
      - [ 68., 104., 145., 69., 1., 110., 55., 8., 104., 162., 98., 0.,
          220., 23., 1., 62., 144., 125., 224., 98., 1., 244., 241., 72.,
          37., 178., 71., 3., 192., 115., 7., 34. ]
      - [ 249., 78., 199., 94., 140., 48., 76., 158., 242., 155., 180.,
          210., 51., 225., 241., 255., 109., 226., 108., 138., 233.,
          111., 166., 34., 144., 234., 244., 152., 239., 241., 248., 44. ]
      - [ 70., 68., 148., 165., 33., 110., 54., 8., 40., 174., 67., 1.,
          204., 114., 11., 203., 144., 85., 169., 99., 36., 212., 217.,
          200., 165., 50., 75., 7., 128., 119., 13., 6. ]
      - [ 236., 125., 148., 86., 201., 94., 84., 169., 249., 178., 39.,
          24., 198., 113., 77., 191., 129., 70., 104., 98., 96., 100.,
          251., 42., 39., 251., 69., 55., 66., 113., 206., 6. ]
      - [ 212., 64., 157., 246., 10., 106., 85., 24., 176., 190., 163.,
          24., 87., 55., 73., 91., 33., 212., 109., 42., 104., 69., 139.,
          2., 209., 163., 113., 28., 32., 241., 6., 35. ]
      - [ 117., 48., 217., 114., 140., 109., 65., 154., 194., 243., 161.,
          88., 19., 241., 217., 58., 9., 132., 124., 26., 155., 103.,
          250., 16., 217., 143., 113., 124., 249., 233., 82., 32. ]
      - [ 206., 38., 156., 49., 139., 48., 48., 7., 186., 183., 38.,
          185., 140., 35., 74., 155., 161., 87., 233., 144., 54., 77.,
          131., 64., 206., 211., 95., 103., 128., 84., 143., 2. ]
      - [ 74., 129., 18., 136., 145., 212., 48., 39., 173., 5., 78., 0.,
          172., 146., 34., 212., 128., 51., 168., 0., 86., 9., 18., 213.,
          163., 116., 26., 75., 18., 6., 173., 14. ]
      - [ 228., 96., 157., 103., 40., 110., 71., 152., 96., 178., 163.,
          88., 215., 87., 73., 59., 17., 84., 104., 122., 41., 116.,
          249., 0., 197., 154., 101., 52., 192., 243., 70., 32. ]
      - [ 181., 98., 64., 1., 76., 31., 198., 184., 83., 162., 177., 78.,
          67., 72., 223., 133., 24., 196., 70., 111., 236., 118., 93.,
          28., 6., 72., 101., 52., 127., 191., 90., 132. ]
      - [ 124., 48., 209., 84., 200., 108., 65., 158., 227., 187., 172.,
          88., 19., 243., 201., 190., 1., 214., 108., 24., 27., 99.,
          250., 0., 219., 238., 117., 124., 226., 241., 70., 32. ]
      - [ 220., 164., 156., 58., 136., 45., 67., 152., 130., 55., 129.,
          24., 215., 99., 72., 27., 1., 66., 108., 58., 58., 69., 219.,
          49., 201., 195., 113., 124., 176., 67., 132., 34. ]
      - [ 228., 48., 153., 114., 136., 108., 65., 24., 50., 183., 165.,
          24., 215., 119., 73., 58., 17., 212., 108., 26., 41., 70.,
          251., 2., 201., 142., 113., 60., 224., 243., 70., 34. ]
      - [ 241., 104., 207., 118., 8., 96., 69., 199., 242., 146., 164.,
          184., 51., 225., 193., 59., 9., 230., 108., 10., 105., 103.,
          166., 34., 208., 171., 116., 56., 225., 240., 226., 40. ]
      - [ 81., 135., 215., 126., 186., 128., 79., 191., 162., 19., 169.,
          208., 115., 227., 136., 82., 39., 194., 108., 140., 123., 75.,
          142., 39., 248., 174., 116., 24., 40., 194., 162., 40. ]
      - [ 206., 84., 60., 165., 1., 102., 53., 17., 40., 254., 7., 17.,
          220., 31., 11., 75., 134., 21., 253., 34., 100., 196., 49.,
          136., 195., 243., 90., 135., 0., 112., 5., 83. ]
      - [ 116., 160., 217., 114., 136., 237., 65., 91., 226., 187., 165.,
          24., 19., 183., 200., 58., 9., 146., 108., 24., 27., 111.,
          250., 16., 217., 136., 117., 124., 225., 192., 198., 32. ]
      - [ 205., 112., 149., 102., 9., 108., 65., 8., 97., 242., 163.,
          24., 214., 115., 73., 59., 145., 84., 104., 58., 9., 68., 219.,
          0., 193., 219., 65., 60., 202., 115., 66., 34. ]
      - [ 239., 66., 4., 165., 5., 30., 110., 40., 68., 174., 67., 5.,
          194., 8., 27., 203., 216., 68., 57., 111., 204., 148., 73.,
          138., 133., 123., 203., 5., 0., 63., 88., 68. ]
      - [ 208., 203., 110., 190., 46., 128., 77., 247., 132., 22., 150.,
          255., 51., 195., 178., 75., 110., 162., 125., 207., 248., 79.,
          6., 53., 208., 227., 248., 216., 61., 136., 176., 121. ]
      - [ 3., 71., 14., 141., 53., 18., 190., 44., 12., 4., 90., 231.,
          236., 72., 63., 193., 254., 109., 131., 231., 228., 144., 5.,
          205., 36., 48., 138., 131., 12., 62., 57., 159. ]
      - [ 244., 32., 157., 118., 136., 109., 65., 25., 226., 187., 161.,
          24., 215., 113., 73., 27., 129., 198., 104., 56., 57., 103.,
          219., 0., 201., 131., 85., 60., 192., 97., 198., 34. ]
      - [ 134., 85., 60., 167., 49., 78., 183., 40., 44., 236., 67., 1.,
          220., 94., 11., 67., 144., 85., 153., 99., 100., 144., 89.,
          76., 229., 179., 75., 7., 0., 51., 5., 83. ]
      - [ 134., 68., 20., 135., 33., 26., 182., 40., 45., 166., 67., 33.,
          204., 122., 13., 199., 146., 85., 171., 99., 100., 148., 89.,
          204., 37., 50., 75., 7., 2., 119., 13., 6. ]
      - [ 249., 15., 69., 117., 172., 14., 68., 183., 224., 186., 166.,
          92., 243., 33., 145., 55., 0., 230., 108., 110., 233., 237.,
          193., 44., 224., 235., 101., 16., 106., 248., 82., 40. ]
      - [ 192., 149., 29., 239., 144., 70., 53., 63., 172., 24., 78., 0.,
          246., 55., 8., 115., 196., 23., 121., 32., 113., 137., 49.,
          93., 225., 163., 106., 66., 16., 0., 165., 123. ]
      - [ 217., 148., 221., 86., 10., 100., 69., 55., 240., 115., 167.,
          92., 83., 55., 200., 127., 5., 150., 124., 8., 169., 77., 183.,
          2., 209., 170., 112., 20., 233., 224., 64., 57. ]
      - [ 6., 20., 152., 167., 33., 110., 50., 136., 40., 174., 75., 1.,
          204., 118., 11., 74., 144., 93., 129., 115., 4., 208., 217.,
          72., 197., 52., 11., 7., 128., 119., 13., 194. ]
      - [ 117., 36., 141., 118., 136., 111., 69., 184., 226., 178., 171.,
          72., 83., 113., 201., 59., 1., 196., 104., 42., 105., 99.,
          219., 8., 217., 130., 101., 60., 232., 123., 82., 32. ]
      - [ 130., 140., 148., 147., 209., 232., 180., 167., 190., 23., 74.,
          17., 172., 34., 68., 207., 129., 91., 170., 17., 54., 220.,
          11., 247., 45., 22., 94., 67., 144., 84., 141., 142. ]
      - [ 204., 81., 21., 71., 1., 78., 71., 184., 33., 160., 163., 8.,
          214., 115., 9., 247., 16., 84., 104., 106., 105., 212., 89.,
          12., 165., 178., 69., 20., 10., 51., 0., 34. ]
      - [ 124., 48., 209., 112., 136., 108., 65., 158., 227., 179., 160.,
          88., 19., 183., 201., 190., 1., 214., 108., 24., 27., 103.,
          250., 0., 153., 142., 117., 124., 226., 241., 70., 32. ]
      - [ 213., 164., 151., 62., 138., 96., 4., 139., 242., 19., 163.,
          88., 119., 242., 200., 251., 1., 214., 104., 26., 59., 71.,
          186., 35., 152., 162., 116., 120., 168., 97., 162., 32. ]
      - [ 96., 163., 25., 101., 48., 138., 97., 39., 122., 41., 106.,
          104., 183., 17., 0., 16., 144., 29., 100., 16., 26., 184.,
          193., 29., 236., 164., 32., 64., 64., 0., 66., 168. ]
      - [ 244., 117., 253., 102., 172., 79., 79., 248., 224., 250., 189.,
          8., 83., 119., 217., 51., 94., 212., 125., 234., 233., 99.,
          249., 40., 251., 235., 229., 188., 101., 251., 198., 113. ]
      - [ 244., 0., 213., 86., 8., 96., 65., 184., 224., 178., 161., 24.,
          83., 247., 201., 127., 1., 212., 108., 106., 57., 71., 234.,
          0., 209., 170., 113., 124., 98., 161., 70., 32. ]
      - [ 2., 4., 42., 133., 209., 250., 178., 39., 60., 7., 74., 1.,
          236., 46., 6., 64., 177., 63., 131., 1., 20., 152., 1., 206.,
          45., 54., 26., 67., 128., 70., 141., 206. ]
      - [ 121., 24., 215., 116., 40., 44., 65., 51., 225., 147., 166.,
          88., 51., 179., 192., 123., 33., 246., 124., 8., 153., 111.,
          178., 0., 209., 170., 112., 24., 234., 224., 194., 40. ]
      - [ 84., 124., 157., 246., 136., 110., 87., 184., 162., 186., 163.,
          8., 215., 119., 73., 91., 145., 212., 109., 106., 40., 65.,
          219., 40., 249., 163., 101., 52., 160., 115., 134., 34. ]
      - [ 101., 116., 152., 67., 237., 63., 194., 152., 123., 234., 45.,
          76., 210., 88., 93., 190., 153., 76., 80., 126., 135., 118.,
          249., 2., 15., 157., 5., 60., 200., 123., 90., 133. ]
      - [ 196., 4., 156., 167., 41., 110., 52., 8., 40., 190., 3., 17.,
          206., 115., 75., 91., 145., 85., 233., 35., 36., 84., 201., 0.,
          197., 243., 75., 23., 128., 115., 13., 2. ]
      - [ 249., 32., 213., 84., 8., 40., 64., 59., 226., 178., 161.,
          120., 19., 161., 192., 191., 1., 196., 108., 8., 121., 103.,
          198., 0., 144., 234., 113., 60., 107., 224., 74., 32. ]
      - [ 196., 150., 156., 55., 168., 44., 52., 175., 170., 187., 131.,
          120., 206., 115., 72., 91., 133., 87., 236., 2., 112., 68.,
          203., 64., 140., 178., 117., 23., 128., 112., 139., 3. ]
      - [ 192., 65., 151., 69., 3., 74., 38., 33., 40., 130., 98., 0.,
          204., 50., 1., 247., 176., 117., 104., 98., 96., 212., 145.,
          72., 165., 178., 70., 3., 0., 114., 39., 34. ]
      - [ 253., 79., 197., 102., 168., 42., 71., 156., 224., 186., 167.,
          104., 115., 97., 153., 255., 16., 196., 108., 106., 233., 97.,
          205., 40., 224., 233., 101., 20., 234., 243., 66., 40. ]
      - [ 6., 83., 50., 165., 49., 90., 182., 32., 45., 172., 75., 33.,
          204., 14., 11., 68., 144., 93., 131., 99., 68., 144., 1., 206.,
          165., 116., 10., 131., 0., 55., 13., 199. ]
      - [ 198., 85., 28., 165., 3., 78., 55., 168., 60., 166., 67., 1.,
          204., 63., 3., 65., 144., 85., 171., 99., 96., 148., 25., 206.,
          229., 179., 79., 7., 0., 115., 5., 82. ]
      - [ 196., 65., 29., 231., 128., 78., 71., 172., 32., 162., 3., 0.,
          215., 103., 9., 83., 16., 84., 104., 106., 104., 212., 217.,
          44., 225., 162., 69., 20., 0., 51., 132., 34. ]
      - [ 165., 112., 168., 1., 197., 63., 226., 152., 90., 250., 3.,
          77., 198., 8., 95., 138., 145., 68., 112., 127., 165., 244.,
          217., 138., 15., 25., 69., 52., 200., 127., 90., 196. ]
      - [ 198., 85., 29., 165., 1., 78., 55., 32., 60., 166., 67., 1.,
          204., 55., 9., 67., 144., 85., 169., 99., 96., 212., 89., 78.,
          229., 178., 79., 7., 0., 115., 5., 114. ]
      - [ 245., 98., 199., 82., 14., 161., 73., 208., 210., 243., 177.,
          222., 19., 193., 217., 59., 47., 224., 108., 156., 171., 103.,
          174., 34., 24., 138., 245., 188., 237., 217., 114., 32. ]
      - [ 245., 113., 157., 103., 40., 14., 71., 184., 96., 186., 163.,
          76., 211., 113., 201., 59., 16., 196., 108., 106., 233., 100.,
          249., 8., 225., 170., 101., 20., 104., 243., 66., 32. ]
      - [ 7., 81., 57., 231., 112., 78., 191., 56., 44., 236., 94., 5.,
          220., 31., 31., 96., 150., 93., 23., 111., 193., 144., 121.,
          204., 103., 61., 43., 128., 8., 179., 5., 243. ]
      - [ 37., 163., 80., 3., 213., 153., 194., 249., 71., 49., 57., 94.,
          2., 0., 220., 132., 25., 10., 66., 28., 151., 58., 76., 23.,
          44., 28., 5., 116., 219., 142., 218., 132. ]
      - [ 197., 102., 133., 7., 128., 42., 70., 156., 114., 178., 34.,
          216., 211., 33., 201., 27., 17., 68., 104., 126., 32., 84.,
          205., 42., 172., 130., 101., 52., 232., 243., 66., 0. ]
      - [ 189., 164., 193., 82., 204., 189., 65., 218., 211., 243., 169.,
          88., 19., 193., 221., 190., 9., 136., 64., 28., 155., 103.,
          254., 18., 27., 204., 17., 124., 251., 203., 82., 160. ]
      - [ 116., 160., 221., 114., 168., 233., 65., 221., 227., 185.,
          165., 24., 83., 245., 200., 59., 9., 146., 108., 24., 27.,
          107., 234., 49., 217., 203., 117., 124., 225., 194., 198., 32. ]
      - [ 6., 135., 0., 171., 177., 11., 178., 41., 12., 45., 91., 165.,
          204., 72., 10., 132., 148., 9., 131., 55., 22., 144., 73.,
          223., 172., 20., 15., 199., 144., 14., 157., 199. ]
      - [ 245., 34., 205., 122., 174., 161., 73., 218., 194., 251., 177.,
          254., 19., 193., 249., 59., 79., 130., 108., 156., 187., 103.,
          238., 48., 216., 139., 245., 252., 253., 201., 114., 33. ]
      - [ 209., 217., 215., 124., 10., 76., 68., 55., 225., 146., 162.,
          88., 55., 179., 0., 251., 32., 246., 108., 10., 105., 111.,
          146., 33., 145., 170., 116., 24., 104., 240., 226., 40. ]
      - [ 49., 166., 226., 26., 254., 177., 72., 211., 211., 91., 185.,
          254., 51., 232., 254., 188., 111., 170., 118., 156., 191.,
          111., 142., 179., 26., 14., 240., 248., 255., 204., 250., 149. ]
      - [ 212., 122., 159., 117., 34., 106., 55., 128., 184., 190., 34.,
          56., 214., 55., 65., 91., 35., 117., 109., 114., 32., 213.,
          137., 42., 209., 162., 101., 23., 160., 113., 7., 35. ]
      - [ 117., 120., 209., 64., 98., 107., 67., 144., 99., 242., 34.,
          104., 83., 21., 193., 190., 35., 244., 100., 122., 9., 119.,
          184., 32., 25., 136., 101., 52., 227., 243., 70., 33. ]
      - [ 255., 98., 228., 18., 78., 177., 200., 200., 211., 247., 181.,
          255., 3., 200., 255., 159., 107., 128., 228., 157., 174., 103.,
          238., 178., 26., 75., 245., 253., 247., 221., 122., 196. ]
      - [ 37., 109., 129., 69., 85., 15., 103., 168., 120., 170., 42.,
          8., 210., 33., 81., 50., 152., 76., 64., 106., 65., 240., 217.,
          42., 109., 156., 5., 52., 64., 123., 82., 160. ]
      - [ 64., 157., 63., 189., 145., 198., 61., 167., 172., 13., 74.,
          1., 252., 55., 32., 65., 196., 55., 185., 160., 112., 136.,
          49., 125., 233., 247., 94., 67., 16., 0., 165., 123. ]
      - [ 125., 104., 83., 110., 29., 141., 67., 80., 97., 64., 237.,
          76., 115., 209., 49., 48., 48., 168., 84., 78., 201., 35.,
          184., 25., 211., 237., 0., 56., 107., 163., 98., 32. ]
      - [ 121., 162., 236., 58., 140., 177., 73., 95., 195., 87., 181.,
          159., 35., 173., 250., 158., 77., 130., 237., 156., 158., 111.,
          230., 145., 218., 201., 240., 249., 255., 204., 254., 92. ]
      - [ 216., 73., 30., 182., 3., 202., 54., 101., 172., 132., 98., 0.,
          239., 147., 32., 83., 162., 117., 232., 66., 96., 141., 0.,
          45., 241., 227., 70., 3., 32., 48., 173., 10. ]
      - [ 183., 162., 235., 154., 206., 161., 168., 200., 210., 91., 81.,
          247., 113., 204., 252., 9., 127., 11., 19., 215., 182., 103.,
          142., 113., 88., 8., 250., 232., 253., 11., 243., 145. ]
      - [ 221., 84., 21., 118., 40., 94., 69., 184., 225., 250., 167.,
          88., 215., 51., 137., 255., 4., 212., 108., 106., 105., 197.,
          185., 12., 147., 251., 101., 20., 42., 241., 66., 49. ]
      - [ 138., 122., 178., 149., 99., 210., 180., 102., 61., 142., 82.,
          167., 172., 142., 39., 196., 166., 125., 163., 193., 68., 220.,
          0., 202., 38., 114., 30., 131., 7., 52., 45., 223. ]
      - [ 206., 84., 144., 167., 161., 110., 55., 136., 56., 174., 67.,
          17., 204., 119., 9., 90., 149., 85., 169., 98., 32., 212.,
          217., 74., 197., 182., 79., 7., 130., 115., 7., 51. ]
      - [ 125., 168., 149., 54., 172., 44., 69., 159., 226., 187., 160.,
          92., 147., 161., 209., 186., 1., 198., 108., 28., 153., 107.,
          222., 32., 216., 235., 117., 124., 234., 241., 194., 40. ]
      - [ 237., 96., 149., 69., 33., 14., 102., 152., 120., 170., 35.,
          72., 214., 113., 73., 191., 144., 68., 104., 106., 97., 244.,
          217., 8., 165., 154., 69., 52., 202., 115., 66., 32. ]
      - [ 237., 52., 149., 82., 205., 109., 65., 26., 242., 243., 33.,
          88., 146., 49., 73., 63., 129., 6., 120., 24., 59., 102., 250.,
          2., 13., 154., 81., 124., 202., 73., 66., 32. ]
      - [ 192., 149., 29., 239., 128., 78., 21., 55., 172., 24., 238.,
          0., 246., 55., 8., 115., 128., 87., 125., 32., 113., 137.,
          177., 77., 225., 179., 102., 0., 0., 32., 165., 59. ]
      - [ 93., 71., 85., 103., 48., 14., 71., 56., 96., 168., 171., 68.,
          211., 33., 153., 112., 16., 196., 76., 110., 233., 176., 77.,
          14., 224., 175., 37., 20., 104., 243., 66., 33. ]
      - [ 76., 76., 177., 69., 1., 74., 55., 0., 41., 166., 110., 0.,
          204., 23., 1., 118., 144., 117., 136., 98., 64., 144., 177.,
          74., 37., 180., 7., 7., 66., 115., 7., 34. ]
      - [ 213., 65., 21., 103., 8., 78., 71., 184., 32., 178., 163., 72.,
          211., 83., 9., 243., 16., 212., 108., 106., 105., 197., 89.,
          44., 161., 170., 101., 20., 32., 179., 64., 32. ]
      - [ 248., 128., 85., 254., 136., 64., 69., 57., 131., 19., 161.,
          88., 83., 247., 232., 255., 65., 150., 108., 138., 123., 79.,
          250., 17., 145., 162., 240., 124., 50., 128., 228., 32. ]
      - [ 245., 96., 148., 68., 9., 58., 66., 8., 224., 178., 163., 8.,
          66., 80., 65., 31., 16., 196., 104., 106., 40., 103., 217., 8.,
          145., 160., 65., 52., 96., 115., 66., 6. ]
      - [ 228., 100., 157., 103., 137., 110., 71., 136., 114., 178.,
          171., 24., 214., 113., 73., 59., 145., 84., 104., 122., 56.,
          116., 217., 2., 237., 159., 69., 52., 192., 115., 194., 34. ]
      - [ 198., 36., 148., 19., 137., 107., 176., 136., 58., 190., 3.,
          25., 196., 98., 79., 139., 145., 85., 232., 51., 36., 84.,
          201., 66., 141., 18., 91., 55., 128., 117., 15., 6. ]
      - [ 244., 96., 205., 114., 140., 41., 65., 216., 194., 179., 161.,
          24., 19., 193., 73., 59., 9., 196., 108., 90., 42., 103., 202.,
          48., 217., 139., 117., 124., 241., 249., 82., 32. ]
      - [ 88., 153., 123., 248., 138., 193., 89., 87., 135., 85., 156.,
          187., 57., 159., 226., 96., 111., 187., 191., 145., 90., 11.,
          38., 145., 219., 201., 186., 249., 53., 128., 164., 123. ]
      - [ 228., 230., 129., 3., 200., 43., 70., 140., 50., 186., 33.,
          88., 195., 34., 201., 27., 17., 196., 96., 122., 56., 84.,
          201., 2., 44., 146., 101., 116., 192., 243., 194., 0. ]
      - [ 181., 162., 232., 58., 142., 161., 200., 217., 130., 21., 149.,
          159., 3., 200., 250., 10., 77., 130., 77., 157., 158., 111.,
          206., 49., 218., 201., 176., 253., 245., 139., 250., 64. ]
      - [ 206., 36., 188., 227., 133., 126., 176., 137., 11., 183., 7.,
          25., 204., 125., 78., 139., 145., 21., 249., 51., 54., 84.,
          217., 192., 15., 83., 77., 103., 130., 103., 141., 70. ]
      - [ 240., 184., 207., 118., 136., 228., 65., 95., 130., 151., 160.,
          92., 51., 229., 224., 59., 9., 246., 108., 24., 59., 111.,
          186., 32., 217., 138., 117., 56., 225., 224., 230., 120. ]
      - [ 2., 30., 18., 135., 115., 242., 186., 34., 60., 4., 91., 167.,
          236., 46., 166., 196., 182., 63., 131., 161., 52., 152., 5.,
          206., 36., 54., 10., 131., 4., 71., 45., 215. ]
      - [ 64., 5., 23., 229., 177., 74., 55., 33., 44., 172., 75., 0.,
          220., 55., 0., 65., 208., 119., 173., 226., 112., 152., 65.,
          76., 229., 178., 175., 129., 0., 114., 165., 51. ]
      - [ 108., 97., 128., 3., 213., 127., 146., 136., 75., 180., 33.,
          9., 198., 120., 79., 158., 145., 76., 192., 115., 20., 112.,
          217., 16., 47., 84., 5., 119., 194., 127., 94., 134. ]
      - [ 244., 120., 157., 101., 40., 78., 71., 152., 96., 186., 162.,
          72., 215., 55., 193., 123., 16., 212., 108., 106., 105., 69.,
          249., 8., 209., 170., 101., 20., 96., 241., 70., 33. ]
      - [ 113., 238., 199., 118., 174., 169., 76., 215., 210., 178.,
          184., 218., 51., 161., 241., 59., 107., 162., 108., 140., 169.,
          107., 198., 34., 184., 142., 244., 56., 237., 216., 242., 40. ]
      - [ 249., 56., 247., 114., 143., 253., 65., 86., 227., 211., 180.,
          88., 59., 241., 240., 191., 43., 178., 124., 24., 187., 111.,
          182., 33., 219., 203., 116., 56., 235., 192., 98., 56. ]
      - [ 213., 89., 93., 101., 2., 78., 70., 188., 112., 170., 162.,
          104., 83., 51., 129., 115., 48., 212., 108., 106., 105., 197.,
          217., 8., 225., 235., 101., 20., 104., 176., 2., 56. ]
      - [ 229., 36., 140., 33., 141., 63., 70., 152., 82., 178., 161.,
          28., 211., 96., 91., 171., 153., 196., 104., 127., 173., 118.,
          217., 26., 141., 155., 69., 52., 216., 251., 90., 0. ]
      - [ 101., 71., 21., 101., 52., 14., 102., 48., 96., 170., 58., 76.,
          211., 33., 145., 115., 16., 68., 108., 110., 233., 176., 197.,
          14., 164., 190., 101., 20., 72., 242., 66., 33. ]
      - [ 245., 116., 156., 116., 136., 44., 69., 26., 226., 187., 167.,
          92., 83., 177., 73., 59., 1., 196., 108., 30., 169., 103.,
          219., 0., 216., 171., 117., 60., 232., 241., 66., 32. ]
      - [ 134., 85., 60., 165., 49., 78., 183., 168., 60., 236., 75., 1.,
          204., 30., 3., 65., 150., 85., 155., 99., 100., 144., 25.,
          204., 229., 49., 11., 7., 0., 55., 5., 211. ]
      - [ 64., 120., 147., 100., 99., 98., 55., 0., 105., 130., 98., 32.,
          252., 55., 1., 122., 162., 117., 224., 98., 1., 212., 160.,
          104., 231., 241., 70., 3., 66., 113., 39., 43. ]
      - [ 212., 65., 29., 229., 32., 78., 87., 32., 32., 190., 162., 0.,
          215., 23., 1., 83., 128., 85., 105., 98., 104., 196., 209., 8.,
          225., 163., 101., 21., 0., 51., 7., 34. ]
      - [ 133., 66., 0., 165., 0., 2., 34., 8., 4., 0., 67., 193., 196.,
          0., 9., 64., 18., 69., 2., 231., 68., 144., 73., 76., 100.,
          32., 11., 4., 0., 51., 1., 0. ]
      - [ 121., 95., 87., 101., 36., 14., 71., 52., 97., 232., 174., 76.,
          115., 49., 145., 247., 54., 228., 108., 110., 201., 177., 181.,
          44., 240., 233., 101., 16., 106., 178., 66., 41. ]
      - [ 245., 230., 224., 26., 204., 161., 200., 222., 210., 55., 177.,
          218., 3., 192., 251., 31., 73., 138., 100., 157., 190., 103.,
          206., 19., 88., 10., 245., 252., 245., 217., 210., 0. ]
      - [ 76., 52., 153., 103., 145., 111., 51., 136., 57., 166., 47.,
          8., 206., 55., 73., 26., 145., 84., 232., 114., 32., 240.,
          249., 10., 207., 215., 5., 55., 194., 115., 7., 34. ]
      - [ 197., 77., 21., 101., 48., 14., 103., 184., 105., 170., 43.,
          72., 215., 51., 129., 115., 144., 68., 108., 110., 105., 144.,
          217., 14., 165., 186., 101., 20., 72., 243., 66., 32. ]
      - [ 117., 103., 76., 69., 76., 26., 70., 184., 65., 160., 191.,
          238., 67., 96., 159., 183., 24., 196., 68., 110., 204., 50.,
          237., 12., 54., 40., 229., 180., 111., 251., 90., 4. ]
      - [ 14., 81., 16., 7., 97., 74., 54., 40., 41., 164., 75., 33.,
          204., 18., 9., 196., 176., 93., 130., 98., 64., 144., 89.,
          204., 37., 52., 11., 7., 2., 55., 13., 134. ]
      - [ 72., 4., 146., 69., 209., 62., 48., 3., 121., 3., 107., 80.,
          206., 50., 12., 252., 145., 31., 34., 0., 48., 188., 145., 66.,
          13., 190., 18., 67., 194., 64., 11., 134. ]
      - [ 209., 88., 215., 116., 10., 12., 69., 53., 224., 146., 162.,
          88., 115., 179., 129., 127., 34., 244., 108., 74., 105., 101.,
          146., 40., 176., 170., 116., 24., 104., 240., 226., 41. ]
      - [ 204., 80., 189., 229., 9., 78., 21., 8., 41., 190., 39., 9.,
          222., 55., 73., 91., 144., 85., 233., 98., 96., 212., 249., 8.,
          197., 243., 69., 23., 0., 115., 7., 98. ]
      - [ 6., 85., 20., 167., 17., 78., 182., 40., 60., 172., 75., 1.,
          204., 54., 9., 68., 144., 85., 139., 99., 96., 144., 89., 206.,
          165., 54., 11., 7., 0., 55., 5., 2. ]
      - [ 117., 48., 193., 80., 204., 189., 192., 83., 195., 243., 161.,
          92., 19., 176., 212., 190., 9., 138., 112., 28., 155., 107.,
          246., 16., 27., 140., 85., 124., 235., 200., 218., 164. ]
      - [ 116., 105., 243., 70., 98., 74., 71., 220., 96., 136., 120.,
          104., 115., 87., 137., 48., 50., 252., 68., 234., 73., 178.,
          169., 40., 177., 172., 37., 8., 97., 179., 102., 41. ]
      - [ 206., 165., 156., 179., 153., 108., 20., 143., 62., 183., 143.,
          25., 206., 55., 74., 91., 129., 87., 233., 17., 50., 76., 219.,
          2., 239., 247., 95., 127., 128., 80., 143., 66. ]
      - [ 252., 112., 157., 114., 40., 108., 65., 24., 163., 182., 167.,
          24., 87., 215., 73., 27., 1., 212., 109., 26., 40., 71., 250.,
          0., 209., 131., 113., 60., 160., 241., 6., 98. ]
      - [ 211., 74., 198., 188., 42., 0., 76., 180., 160., 210., 146.,
          247., 99., 130., 177., 223., 102., 228., 124., 239., 237., 71.,
          134., 40., 144., 98., 250., 152., 45., 181., 56., 29. ]
      - [ 229., 120., 145., 69., 228., 47., 231., 144., 106., 226., 34.,
          76., 210., 48., 85., 63., 145., 100., 112., 126., 129., 244.,
          249., 8., 13., 154., 69., 52., 200., 123., 82., 52. ]
      - [ 110., 253., 44., 131., 205., 83., 150., 237., 23., 254., 157.,
          171., 72., 124., 78., 132., 217., 210., 251., 243., 126., 66.,
          123., 183., 127., 87., 205., 255., 151., 127., 220., 214. ]
      - [ 197., 85., 29., 103., 40., 14., 71., 184., 96., 170., 163.,
          72., 215., 115., 9., 115., 16., 68., 108., 106., 105., 244.,
          217., 8., 229., 171., 101., 20., 104., 243., 66., 32. ]
      - [ 253., 106., 192., 80., 204., 189., 64., 222., 211., 187., 176.,
          94., 19., 128., 213., 190., 9., 138., 100., 28., 143., 111.,
          206., 16., 24., 136., 117., 124., 255., 217., 218., 140. ]
      - [ 125., 98., 196., 98., 140., 61., 66., 152., 67., 176., 165.,
          204., 83., 65., 217., 191., 25., 196., 108., 126., 153., 99.,
          239., 0., 218., 203., 229., 124., 235., 251., 90., 32. ]
      - [ 0., 69., 0., 7., 81., 2., 38., 36., 104., 128., 74., 0., 228.,
          0., 1., 196., 16., 100., 0., 98., 64., 144., 1., 76., 36., 52.,
          0., 2., 0., 50., 9., 12. ]
      - [ 196., 85., 25., 231., 32., 78., 55., 184., 56., 170., 107.,
          64., 213., 115., 9., 81., 148., 85., 40., 98., 97., 144., 217.,
          14., 229., 167., 111., 4., 0., 115., 5., 35. ]
      - [ 174., 176., 177., 90., 9., 245., 81., 91., 131., 85., 165.,
          28., 26., 215., 110., 63., 137., 18., 209., 24., 187., 71.,
          250., 145., 75., 217., 80., 127., 218., 77., 70., 118. ]
      - [ 204., 120., 157., 229., 33., 74., 55., 32., 40., 174., 38.,
          33., 206., 55., 1., 91., 146., 117., 233., 98., 96., 212.,
          209., 72., 229., 243., 71., 7., 0., 115., 7., 99. ]
      - [ 253., 98., 196., 69., 40., 26., 78., 152., 112., 186., 183.,
          252., 67., 64., 219., 27., 23., 196., 108., 238., 236., 246.,
          205., 10., 6., 170., 229., 180., 111., 243., 90., 5. ]
      - [ 77., 97., 149., 101., 32., 14., 71., 184., 96., 170., 163.,
          72., 215., 115., 73., 114., 16., 68., 108., 106., 73., 208.,
          217., 8., 229., 249., 101., 20., 72., 179., 66., 32. ]
      - [ 241., 79., 5., 101., 172., 14., 71., 190., 112., 178., 162.,
          76., 243., 33., 145., 51., 0., 228., 108., 110., 233., 228.,
          205., 46., 160., 170., 101., 20., 104., 248., 82., 40. ]
      - [ 37., 229., 128., 75., 221., 31., 198., 172., 83., 177., 169.,
          8., 211., 96., 93., 180., 89., 206., 66., 126., 90., 114.,
          217., 63., 47., 156., 5., 124., 209., 251., 218., 132. ]
      - [ 196., 96., 145., 69., 97., 110., 39., 0., 120., 170., 99., 88.,
          222., 55., 77., 191., 144., 92., 96., 106., 33., 212., 225.,
          74., 5., 176., 69., 6., 66., 115., 7., 160. ]
      - [ 196., 77., 31., 165., 1., 74., 55., 160., 172., 182., 3., 1.,
          214., 55., 1., 83., 128., 117., 105., 98., 96., 197., 57.,
          108., 229., 178., 79., 7., 0., 49., 5., 98. ]
      - [ 134., 213., 20., 143., 243., 74., 182., 173., 60., 32., 67.,
          32., 204., 114., 8., 65., 178., 85., 130., 98., 96., 144., 25.,
          109., 37., 48., 79., 7., 8., 51., 161., 131. ]
      - [ 245., 97., 213., 86., 136., 12., 69., 184., 224., 178., 161.,
          92., 83., 113., 217., 59., 1., 196., 108., 110., 233., 103.,
          255., 0., 144., 170., 117., 60., 104., 177., 66., 32. ]
      - [ 196., 33., 145., 69., 1., 74., 38., 40., 40., 162., 99., 64.,
          196., 50., 9., 214., 144., 85., 104., 98., 64., 208., 193.,
          74., 5., 178., 67., 6., 0., 35., 3., 32. ]
      - [ 196., 64., 13., 39., 0., 66., 7., 40., 32., 6., 3., 160., 213.,
          71., 9., 91., 16., 84., 40., 98., 72., 4., 201., 8., 192.,
          162., 106., 5., 32., 51., 5., 32. ]
